{"learner":{"attributes":{"scikit_learn":"{\"_estimator_type\": \"regressor\"}"},"feature_names":[],"feature_types":[],"gradient_booster":{"model":{"gbtree_model_param":{"num_parallel_tree":"1","num_trees":"500"},"iteration_indptr":[0,1,2,3,4,5,6,7,8,9,10,11,12,13,14,15,16,17,18,19,20,21,22,23,24,25,26,27,28,29,30,31,32,33,34,35,36,37,38,39,40,41,42,43,44,45,46,47,48,49,50,51,52,53,54,55,56,57,58,59,60,61,62,63,64,65,66,67,68,69,70,71,72,73,74,75,76,77,78,79,80,81,82,83,84,85,86,87,88,89,90,91,92,93,94,95,96,97,98,99,100,101,102,103,104,105,106,107,108,109,110,111,112,113,114,115,116,117,118,119,120,121,122,123,124,125,126,127,128,129,130,131,132,133,134,135,136,137,138,139,140,141,142,143,144,145,146,147,148,149,150,151,152,153,154,155,156,157,158,159,160,161,162,163,164,165,166,167,168,169,170,171,172,173,174,175,176,177,178,179,180,181,182,183,184,185,186,187,188,189,190,191,192,193,194,195,196,197,198,199,200,201,202,203,204,205,206,207,208,209,210,211,212,213,214,215,216,217,218,219,220,221,222,223,224,225,226,227,228,229,230,231,232,233,234,235,236,237,238,239,240,241,242,243,244,245,246,247,248,249,250,251,252,253,254,255,256,257,258,259,260,261,262,263,264,265,266,267,268,269,270,271,272,273,274,275,276,277,278,279,280,281,282,283,284,285,286,287,288,289,290,291,292,293,294,295,296,297,298,299,300,301,302,303,304,305,306,307,308,309,310,311,312,313,314,315,316,317,318,319,320,321,322,323,324,325,326,327,328,329,330,331,332,333,334,335,336,337,338,339,340,341,342,343,344,345,346,347,348,349,350,351,352,353,354,355,356,357,358,359,360,361,362,363,364,365,366,367,368,369,370,371,372,373,374,375,376,377,378,379,380,381,382,383,384,385,386,387,388,389,390,391,392,393,394,395,396,397,398,399,400,401,402,403,404,405,406,407,408,409,410,411,412,413,414,415,416,417,418,419,420,421,422,423,424,425,426,427,428,429,430,431,432,433,434,435,436,437,438,439,440,441,442,443,444,445,446,447,448,449,450,451,452,453,454,455,456,457,458,459,460,461,462,463,464,465,466,467,468,469,470,471,472,473,474,475,476,477,478,479,480,481,482,483,484,485,486,487,488,489,490,491,492,493,494,495,496,497,498,499,500],"tree_info":[0,0,0,0,0,0,0,0,0,0,0,0,0,0,0,0,0,0,0,0,0,0,0,0,0,0,0,0,0,0,0,0,0,0,0,0,0,0,0,0,0,0,0,0,0,0,0,0,0,0,0,0,0,0,0,0,0,0,0,0,0,0,0,0,0,0,0,0,0,0,0,0,0,0,0,0,0,0,0,0,0,0,0,0,0,0,0,0,0,0,0,0,0,0,0,0,0,0,0,0,0,0,0,0,0,0,0,0,0,0,0,0,0,0,0,0,0,0,0,0,0,0,0,0,0,0,0,0,0,0,0,0,0,0,0,0,0,0,0,0,0,0,0,0,0,0,0,0,0,0,0,0,0,0,0,0,0,0,0,0,0,0,0,0,0,0,0,0,0,0,0,0,0,0,0,0,0,0,0,0,0,0,0,0,0,0,0,0,0,0,0,0,0,0,0,0,0,0,0,0,0,0,0,0,0,0,0,0,0,0,0,0,0,0,0,0,0,0,0,0,0,0,0,0,0,0,0,0,0,0,0,0,0,0,0,0,0,0,0,0,0,0,0,0,0,0,0,0,0,0,0,0,0,0,0,0,0,0,0,0,0,0,0,0,0,0,0,0,0,0,0,0,0,0,0,0,0,0,0,0,0,0,0,0,0,0,0,0,0,0,0,0,0,0,0,0,0,0,0,0,0,0,0,0,0,0,0,0,0,0,0,0,0,0,0,0,0,0,0,0,0,0,0,0,0,0,0,0,0,0,0,0,0,0,0,0,0,0,0,0,0,0,0,0,0,0,0,0,0,0,0,0,0,0,0,0,0,0,0,0,0,0,0,0,0,0,0,0,0,0,0,0,0,0,0,0,0,0,0,0,0,0,0,0,0,0,0,0,0,0,0,0,0,0,0,0,0,0,0,0,0,0,0,0,0,0,0,0,0,0,0,0,0,0,0,0,0,0,0,0,0,0,0,0,0,0,0,0,0,0,0,0,0,0,0,0,0,0,0,0,0,0,0,0,0,0,0,0,0,0,0,0,0,0,0,0,0,0,0,0,0,0,0,0,0,0,0,0,0,0,0,0,0,0,0,0,0,0,0,0,0,0,0,0,0,0,0,0,0,0,0,0,0,0,0,0,0,0,0,0],"trees":[{"base_weights":[-2.4030487E-5,-1.2373389E3,3.9380686E3,-2.9212402E3,1.2280235E1,2.094672E3,5.8163516E3,-6.465227E3,-2.424943E3,1.2736377E2,-9.00362E1,2.382183E3,-4.1415752E1,4.386073E3,9.042425E3,-4.9918833E3,-1.2599112E2,-3.0539124E3,-1.2915142E3,-9.1941046E2,5.981353E2,2.1356077E3,7.1562744E1,2.556097E3,4.9951987E3,7.6425264E3,1.6104987E2,2.7850602E0,-6.656238E3,-3.3130225E3,-1.7003127E3,-3.685825E3,-8.1086707E2,-1.1049908E3,2.8446146E1,-3.9359457E2,8.8423535E2,-2.6430098E1,2.3529749E3,3.5454497E3,2.0911403E0,4.504572E3,6.95415E3,5.568819E3,1.00144714E2,-5.567506E3,-9.661661E1,-4.0284414E3,-2.823153E3,-2.2926807E3,2.9412935E0,-1.8211709E3,-7.418757E1,3.4010754E1,-1.068045E3,-1.7685635E3,-3.942597E2,-1.2444141E3,2.144703E2,3.807623E2,1.522067E3,3.6892828E2,2.6801335E3,4.375564E3,1.7281197E1,3.45174E3,5.293703E3,8.697276E1,3.944963E1,7.1032476E3,1.6522861E1,-6.39951E3,-2.6409943E1,-3.710071E3,-5.7433964E1,-1.6071261E3,-2.9946362E3,-8.883301E0,-2.6135386E3,-3.9157684E1,-2.408132E-1,2.065387E1,-1.2881241E3,-4.7082436E1,-1.4900317E3,-6.585318E2,2.668699E1,-4.4975226E2,-3.2747295E1,2.4541245E1,-1.4673396E2,5.201561E2,-1.0170979E3,1.777231E3,5.8889023E1,-1.0771444E1,1.7141676E1,3.000195E3,1.4492087E3,3.195914E1,5.092279E1,3.9828154E3,1.2067611E1,4.0680137E3,6.4246484E3,8.9086525E1,5.065014E1,-7.029195E1,-4.5583652E1,-2.483879E3,-4.006167E3,-2.7436571E1,-7.7718673E0,-3.1031611E3,-1.261909E1,-2.987905E3,-1.5773721E1,-1.033083E3,-3.983351E1,-1.661985E3,2.2507358E0,2.1023432E1,-9.146619E2,7.5982566E0,-1.02052374E3,-7.650176E2,9.184213E2,2.5539413E1,3.7513748E2,-2.6471003E1,1.6709749E0,1.5649215E3,4.319319E1,1.2898465E1,-1.2479418E1,2.6440825E3,4.2107173E3,1.0986602E2,2.7226782E3,4.789624E1,2.3188267E1,4.7197796E1,2.3946619E1,7.119918E1,4.576462E1,-3.1497898E1,-1.3500114E1,-4.5932764E3,-3.0664282E3,-2.9356824E3,-4.298507E1,-3.468205E1,-2.0184631E1,-2.5060243E2,-1.5780349E3,-1.3955754E3,-2.7973926E3,5.361019E2,-1.3823607E3,-4.844396E0,-1.7255295E1,4.43183E0,-1.1800618E3,1.8818438E1,-4.200112E-1,6.102046E2,-4.3518527E2,2.0157047E3,8.366678E2,2.7990486E3,9.644782E0,2.713028E1,5.2503124E1,-9.684094E0,1.2761786E1,3.5958405E1,1.5226214E1,-4.901793E1,-3.2432007E1,-1.8144188E1,-3.5093056E1,-1.7864294E1,-3.0527458E1,5.1172748E0,-1.8359316E1,-3.0528706E1,-1.0849274E1,-1.574735E1,-1.8254274E0,-3.7624527E1,-1.4902912E1,-8.19213E0,1.6884962E1,-8.486875E0,-2.6223244E1,-1.875618E1,-8.124178E-1,1.0067603E1,-8.830121E-1,1.1844514E1,-8.670137E0,1.6468546E1,3.0107458E1,-8.0215144E-1,1.782877E1,2.9639887E1,1.163802E1],"categories":[],"categories_nodes":[],"categories_segments":[],"categories_sizes":[],"default_left":[0,0,0,0,0,0,0,0,0,0,0,0,0,0,0,0,0,0,0,0,0,0,0,0,0,0,0,0,0,0,0,0,0,0,0,0,0,0,0,0,0,0,0,0,0,0,0,0,0,0,0,0,0,0,0,0,0,0,0,0,0,0,0,0,0,0,0,0,0,0,0,0,0,0,0,0,0,0,0,0,0,0,0,0,0,0,0,0,0,0,0,0,0,0,0,0,0,0,0,0,0,0,0,0,0,0,0,0,0,0,0,0,0,0,0,0,0,0,0,0,0,0,0,0,0,0,0,0,0,0,0,0,0,0,0,0,0,0,0,0,0,0,0,0,0,0,0,0,0,0,0,0,0,0,0,0,0,0,0,0,0,0,0,0,0,0,0,0,0,0,0,0,0,0,0,0,0,0,0,0,0,0,0,0,0,0,0,0,0,0,0,0,0,0,0,0,0,0,0,0,0,0,0,0,0,0,0],"id":0,"left_children":[1,3,5,7,9,11,13,15,17,19,-1,21,-1,23,25,27,-1,29,31,33,35,37,-1,39,41,43,-1,-1,45,47,49,51,53,55,-1,57,59,-1,61,63,-1,65,67,69,-1,71,-1,73,75,77,-1,79,-1,-1,81,83,85,87,89,91,93,95,97,99,-1,101,103,-1,-1,105,-1,107,-1,109,-1,111,113,-1,115,-1,-1,-1,117,-1,119,121,-1,123,-1,-1,125,127,129,131,133,-1,-1,135,137,-1,-1,139,-1,141,143,-1,-1,-1,-1,145,147,-1,-1,149,-1,151,-1,153,-1,155,-1,-1,157,-1,159,161,163,-1,165,-1,-1,167,-1,-1,-1,169,171,173,175,-1,-1,-1,-1,-1,-1,-1,-1,177,179,181,-1,-1,-1,183,185,187,189,191,193,-1,-1,-1,195,-1,-1,197,199,201,203,205,-1,-1,-1,-1,-1,-1,-1,-1,-1,-1,-1,-1,-1,-1,-1,-1,-1,-1,-1,-1,-1,-1,-1,-1,-1,-1,-1,-1,-1,-1,-1,-1,-1,-1,-1,-1,-1],"loss_changes":[1.0598177E10,3.4825452E9,1.7882752E9,1.2243251E9,9.878869E8,4.8321536E8,1.1461837E9,7.14316E8,4.380485E8,4.6377398E8,0E0,2.8254208E8,0E0,1.8787533E8,6.480927E8,6.246514E8,0E0,1.3395763E8,2.5364387E8,2.0711384E8,1.8449136E8,2.5758784E8,0E0,1.0839235E8,9.746381E7,2.7378534E8,0E0,0E0,1.2290202E8,1.053312E8,7.86496E7,2.4403245E8,2.0619443E8,1.3088522E8,0E0,7.580048E7,1.6127053E8,0E0,1.4960205E8,4.2222016E7,0E0,7.311795E7,9.682432E7,2.1662989E8,0E0,8.536346E7,0E0,5.130829E7,3.710131E7,2.0658784E7,0E0,9.777437E7,0E0,0E0,1.2472022E8,1.1089094E8,1.1184325E8,9.694545E7,6.993176E7,5.567246E7,8.277907E7,6.798708E7,7.405235E7,2.32592E6,0E0,5.48064E7,5.842176E7,0E0,0E0,5.423309E7,0E0,5.05728E6,0E0,3.180224E7,0E0,2.3335456E7,2.8991872E7,0E0,1.1191104E7,0E0,0E0,0E0,1.0999226E8,0E0,3.9598144E7,9.102299E7,0E0,3.1843088E7,0E0,0E0,5.0095216E7,7.51356E7,5.0628596E7,9.52457E7,5.6303864E7,0E0,0E0,5.654643E7,7.30422E7,0E0,0E0,4.2594496E7,0E0,2.3598016E7,5.965568E6,0E0,0E0,0E0,0E0,1.4624112E7,3.6122496E7,0E0,0E0,2.0212864E7,0E0,6.502608E6,0E0,6.484592E7,0E0,3.2696512E7,0E0,0E0,7.944946E7,0E0,1.0880298E7,2.4592898E7,2.5987232E7,0E0,4.636176E7,0E0,0E0,5.6091616E7,0E0,0E0,0E0,2.9575296E7,3.869344E7,2.8903206E7,1.7577472E7,0E0,0E0,0E0,0E0,0E0,0E0,0E0,0E0,6.59456E6,1.4703104E7,1.4323072E7,0E0,0E0,0E0,7.828631E7,6.214061E7,2.1445184E7,2.2144336E7,4.66771E7,5.600717E7,0E0,0E0,0E0,2.7362096E7,0E0,0E0,5.216425E7,3.949423E7,3.468E7,6.000487E7,2.7028608E7,0E0,0E0,0E0,0E0,0E0,0E0,0E0,0E0,0E0,0E0,0E0,0E0,0E0,0E0,0E0,0E0,0E0,0E0,0E0,0E0,0E0,0E0,0E0,0E0,0E0,0E0,0E0,0E0,0E0,0E0,0E0,0E0,0E0,0E0,0E0,0E0,0E0],"parents":[2147483647,0,0,1,1,2,2,3,3,4,4,5,5,6,6,7,7,8,8,9,9,11,11,13,13,14,14,15,15,17,17,18,18,19,19,20,20,21,21,23,23,24,24,25,25,28,28,29,29,30,30,31,31,32,32,33,33,35,35,36,36,38,38,39,39,41,41,42,42,43,43,45,45,47,47,48,48,49,49,51,51,54,54,55,55,56,56,57,57,58,58,59,59,60,60,61,61,62,62,63,63,65,65,66,66,69,69,71,71,73,73,75,75,76,76,78,78,82,82,84,84,85,85,87,87,90,90,91,91,92,92,93,93,94,94,97,97,98,98,101,101,103,103,104,104,109,109,110,110,113,113,115,115,117,117,119,119,122,122,124,124,125,125,126,126,128,128,131,131,135,135,136,136,137,137,138,138,147,147,148,148,149,149,153,153,154,154,155,155,156,156,157,157,158,158,162,162,165,165,166,166,167,167,168,168,169,169],"right_children":[2,4,6,8,10,12,14,16,18,20,-1,22,-1,24,26,28,-1,30,32,34,36,38,-1,40,42,44,-1,-1,46,48,50,52,54,56,-1,58,60,-1,62,64,-1,66,68,70,-1,72,-1,74,76,78,-1,80,-1,-1,82,84,86,88,90,92,94,96,98,100,-1,102,104,-1,-1,106,-1,108,-1,110,-1,112,114,-1,116,-1,-1,-1,118,-1,120,122,-1,124,-1,-1,126,128,130,132,134,-1,-1,136,138,-1,-1,140,-1,142,144,-1,-1,-1,-1,146,148,-1,-1,150,-1,152,-1,154,-1,156,-1,-1,158,-1,160,162,164,-1,166,-1,-1,168,-1,-1,-1,170,172,174,176,-1,-1,-1,-1,-1,-1,-1,-1,178,180,182,-1,-1,-1,184,186,188,190,192,194,-1,-1,-1,196,-1,-1,198,200,202,204,206,-1,-1,-1,-1,-1,-1,-1,-1,-1,-1,-1,-1,-1,-1,-1,-1,-1,-1,-1,-1,-1,-1,-1,-1,-1,-1,-1,-1,-1,-1,-1,-1,-1,-1,-1,-1,-1],"split_conditions":[5.1798564E-1,-3.666639E-1,7.319449E-1,-1.4086301E0,1.8733667E0,1.2136372E0,1.524003E0,1.005205E0,2.4390593E-1,-2.0098889E-1,-9.00362E1,5.511167E-1,-4.1415752E1,3.732963E-2,2.0178554E0,-1.0173654E-1,-1.2599112E2,4.6979743E-3,-8.029983E-1,1.1164082E0,-2.270235E-1,-6.9309735E-1,7.1562744E1,7.9361457E-1,7.760653E-2,7.785101E-1,1.6104987E2,2.7850602E0,1.6966814E0,-7.5869304E-1,4.1494566E-1,2.0843036E0,-6.3239074E-1,-3.000888E-1,2.8446146E1,-1.9705485E-1,3.038618E-1,-2.6430098E1,-1.9968897E-1,-4.4242587E-2,2.0911403E0,9.4886875E-1,-4.1831207E-2,-5.365902E-2,1.00144714E2,8.0044895E-1,-9.661661E1,1.1280625E0,-8.980814E-1,-7.546967E-1,2.9412935E0,-4.8732886E-1,-7.418757E1,3.4010754E1,-1.0815492E0,-1.1452416E0,1.2189438E0,5.286795E-1,-8.5085315E-1,1.2030015E0,8.57309E-1,9.677965E-2,2.5960505E-1,-4.5204195E-1,1.7281197E1,7.4932194E-1,1.1798395E0,8.697276E1,3.944963E1,-4.655733E-1,1.6522861E1,8.448426E-2,-2.6409943E1,-8.024947E-1,-5.7433964E1,-5.934907E-1,8.2687557E-1,-8.883301E0,2.4515726E-1,-3.9157684E1,-2.408132E-1,2.065387E1,1.2631063E0,-4.7082436E1,1.047817E0,-1.2464051E0,2.668699E1,-7.678362E-1,-3.2747295E1,2.4541245E1,1.3145122E-1,-9.613725E-1,-2.7116162E-1,1.5999626E0,-5.216085E-1,-1.0771444E1,1.7141676E1,7.488447E-1,-4.93021E-1,3.195914E1,5.092279E1,-2.5910974E-1,1.2067611E1,-2.6052183E-1,-5.067078E-1,8.9086525E1,5.065014E1,-7.029195E1,-4.5583652E1,-9.6825063E-1,2.0356518E-1,-2.7436571E1,-7.7718673E0,4.671813E-1,-1.261909E1,1.8571447E-1,-1.5773721E1,-7.740227E-2,-3.983351E1,4.0675777E-1,2.2507358E0,2.1023432E1,-5.284298E-1,7.5982566E0,-2.5002456E-1,-5.769111E-1,-2.5580494E-2,2.5539413E1,5.047533E-1,-2.6471003E1,1.6709749E0,5.2385356E-2,4.319319E1,1.2898465E1,-1.2479418E1,1.0668696E0,-2.4030834E-1,3.6262344E-3,-5.132217E-2,4.789624E1,2.3188267E1,4.7197796E1,2.3946619E1,7.119918E1,4.576462E1,-3.1497898E1,-1.3500114E1,4.2310786E-2,8.176937E-2,-7.7396923E-1,-4.298507E1,-3.468205E1,-2.0184631E1,5.55843E-1,-5.0653857E-1,4.346613E-1,1.4496377E-1,2.9984963E-1,3.91163E-1,-4.844396E0,-1.7255295E1,4.43183E0,9.148453E-2,1.8818438E1,-4.200112E-1,-4.2788306E-1,2.7649525E-1,6.514324E-1,3.6371204E-1,7.2524136E-1,9.644782E0,2.713028E1,5.2503124E1,-9.684094E0,1.2761786E1,3.5958405E1,1.5226214E1,-4.901793E1,-3.2432007E1,-1.8144188E1,-3.5093056E1,-1.7864294E1,-3.0527458E1,5.1172748E0,-1.8359316E1,-3.0528706E1,-1.0849274E1,-1.574735E1,-1.8254274E0,-3.7624527E1,-1.4902912E1,-8.19213E0,1.6884962E1,-8.486875E0,-2.6223244E1,-1.875618E1,-8.124178E-1,1.0067603E1,-8.830121E-1,1.1844514E1,-8.670137E0,1.6468546E1,3.0107458E1,-8.0215144E-1,1.782877E1,2.9639887E1,1.163802E1],"split_indices":[8,8,9,8,6,77,8,28,0,9,0,5,0,19,3,65,0,13,14,14,11,9,0,2,83,26,0,0,6,9,40,2,4,10,0,38,9,0,12,80,0,8,40,79,0,79,0,63,38,58,0,78,0,0,18,9,21,65,89,6,35,87,58,70,0,33,9,0,0,40,0,25,0,22,0,15,34,0,16,0,0,0,91,0,61,29,0,51,0,0,8,79,27,2,88,0,0,14,7,0,0,70,0,87,69,0,0,0,0,19,95,0,0,34,0,73,0,97,0,55,0,0,90,0,37,2,43,0,54,0,0,73,0,0,0,25,94,80,96,0,0,0,0,0,0,0,0,19,69,66,0,0,0,56,74,51,51,34,33,0,0,0,14,0,0,2,55,10,91,37,0,0,0,0,0,0,0,0,0,0,0,0,0,0,0,0,0,0,0,0,0,0,0,0,0,0,0,0,0,0,0,0,0,0,0,0,0],"split_type":[0,0,0,0,0,0,0,0,0,0,0,0,0,0,0,0,0,0,0,0,0,0,0,0,0,0,0,0,0,0,0,0,0,0,0,0,0,0,0,0,0,0,0,0,0,0,0,0,0,0,0,0,0,0,0,0,0,0,0,0,0,0,0,0,0,0,0,0,0,0,0,0,0,0,0,0,0,0,0,0,0,0,0,0,0,0,0,0,0,0,0,0,0,0,0,0,0,0,0,0,0,0,0,0,0,0,0,0,0,0,0,0,0,0,0,0,0,0,0,0,0,0,0,0,0,0,0,0,0,0,0,0,0,0,0,0,0,0,0,0,0,0,0,0,0,0,0,0,0,0,0,0,0,0,0,0,0,0,0,0,0,0,0,0,0,0,0,0,0,0,0,0,0,0,0,0,0,0,0,0,0,0,0,0,0,0,0,0,0,0,0,0,0,0,0,0,0,0,0,0,0,0,0,0,0,0,0],"sum_hessian":[2.173E3,1.654E3,5.19E2,7.04E2,9.5E2,2.63E2,2.56E2,8.5E1,6.19E2,9.39E2,1.1E1,2.52E2,1.1E1,1.79E2,7.7E1,7E1,1.5E1,3.97E2,2.22E2,2.91E2,6.48E2,2.41E2,1.1E1,4.6E1,1.33E2,6.6E1,1.1E1,1.7E1,5.3E1,3.32E2,6.5E1,3.6E1,1.86E2,2.78E2,1.3E1,1.45E2,5.03E2,1E1,2.31E2,3.2E1,1.4E1,1.09E2,2.4E1,3.7E1,2.9E1,4.1E1,1.2E1,1.32E2,2E2,5E1,1.5E1,2.5E1,1.1E1,1E1,1.76E2,1.43E2,1.35E2,6E1,8.5E1,2.82E2,2.21E2,3.3E1,1.98E2,2.1E1,1.1E1,4.9E1,6E1,1.4E1,1E1,2.6E1,1.1E1,3.1E1,1E1,1.14E2,1.8E1,2.6E1,1.74E2,1E1,4E1,1.1E1,1.4E1,1.1E1,1.65E2,1.1E1,1.32E2,1.25E2,1E1,4.4E1,1.6E1,1.1E1,7.4E1,2.57E2,2.5E1,1.88E2,3.3E1,1.6E1,1.7E1,1.56E2,4.2E1,1E1,1.1E1,3.9E1,1E1,3.1E1,2.9E1,1.2E1,1.4E1,2.1E1,1E1,2.4E1,9E1,1E1,1.6E1,1.63E2,1.1E1,2.8E1,1.2E1,1.52E2,1.3E1,1.2E2,1.2E1,1E1,1.15E2,1.4E1,3E1,4.7E1,2.7E1,1.6E1,2.41E2,1E1,1.5E1,1.75E2,1.3E1,1.7E1,1.6E1,1.23E2,3.3E1,2.1E1,2.1E1,2.5E1,1.4E1,2.1E1,1E1,1.9E1,1E1,1.4E1,1E1,5.3E1,3.7E1,1.46E2,1.7E1,1.7E1,1.1E1,6.3E1,8.9E1,9.9E1,2.1E1,2.8E1,8.7E1,1.8E1,1.2E1,1.2E1,3.5E1,1.3E1,1.4E1,1.87E2,5.4E1,1.07E2,6.8E1,1.12E2,1.1E1,1.5E1,1.8E1,1.1E1,1E1,1.1E1,1E1,4.1E1,1.2E1,1.1E1,2.6E1,1.5E1,1.31E2,4.3E1,2E1,2.1E1,6.8E1,8.6E1,1.3E1,1.1E1,1E1,1.3E1,1.5E1,6.2E1,2.5E1,2.1E1,1.4E1,1.19E2,6.8E1,1.1E1,4.3E1,8E1,2.7E1,3.5E1,3.3E1,1.01E2,1.1E1],"tree_param":{"num_deleted":"0","num_feature":"98","num_nodes":"207","size_leaf_vector":"1"}},{"base_weights":[4.137221E-2,-1.2255831E3,3.9008271E3,-2.8934014E3,1.2100719E1,2.0744636E3,5.7617573E3,-6.404785E3,-2.4016716E3,1.2612854E2,-8.921087E1,2.3592954E3,-4.1036102E1,4.3449897E3,8.957353E3,-4.94529E3,-1.2480995E2,-3.0245112E3,-1.2792867E3,-9.1043823E2,5.923094E2,2.1149324E3,7.090675E1,2.5327114E3,4.9482144E3,7.569928E3,1.5957358E2,2.7587564E0,-6.5940996E3,-3.2810222E3,-1.68447E3,-3.6520366E3,-8.029711E2,-1.0942751E3,2.8182003E1,-3.897918E2,8.756317E2,-2.6189821E1,2.330269E3,3.5130305E3,2.0716226E0,4.4619917E3,6.889665E3,5.8406343E3,1.0424886E4,-5.5152188E3,-9.572476E1,-3.98994E3,-2.795614E3,-2.271313E3,2.9137194E0,-1.8044744E3,-7.3507515E1,3.3701565E1,-1.0577815E3,-1.7516759E3,-3.9015756E2,-1.2327444E3,2.1264891E2,3.7700098E2,1.5073293E3,3.654264E2,2.654261E3,4.3355757E3,1.7122786E1,3.4188855E3,5.2438496E3,8.6161026E1,3.9090996E1,7.055953E3,1.5532277E1,1.1961545E2,7.521421E1,-6.3391357E3,-2.6169853E1,-3.3813708E3,-4.8176357E3,-1.5923588E3,-2.9652842E3,-8.802544E0,-2.5891262E3,-3.8798737E1,-2.3856479E-1,2.0464542E1,-1.2758119E3,-4.6650845E1,-1.4756415E3,-6.519861E2,2.6444382E1,-4.45577E2,-3.2439083E1,2.4316284E1,-1.4522313E2,1.4353589E3,1.9176117E2,1.7132705E3,-2.630712E2,-1.0670066E1,1.6979782E1,2.9710247E3,1.4359786E3,5.0464626E1,3.1659185E1,3.9447644E3,1.1957906E1,4.0295566E3,6.364301E3,8.800485E1,5.3947567E1,-6.962098E1,-4.516926E1,-3.871864E3,-2.275149E3,-2.892123E1,-5.24295E3,-2.7187145E1,-7.6987205E0,-3.0726868E3,-1.2503415E1,-2.959918E3,-1.5628116E1,-1.02310913E3,-3.9463627E1,-1.7040342E3,-1.7640297E2,2.0832312E1,-9.0573956E2,7.5273395E0,-1.01103143E3,-7.576828E2,9.098942E2,2.8629038E1,8.9978534E2,3.0704578E2,-1.7076628E1,1.510924E3,4.2792114E1,1.1705297E1,-2.0637386E1,2.6180522E3,4.170952E3,1.089073E2,2.697778E3,4.7435696E1,2.2971842E1,4.674727E1,2.3728922E1,7.052279E1,4.5348583E1,-4.2442417E3,-2.0303654E1,-1.5450706E1,-3.0589909E1,-3.6071434E1,-5.8315613E1,-2.9066548E3,-4.2579094E1,-3.4354492E1,-1.9999605E1,-2.483033E2,-1.5627142E3,-1.419565E3,-3.4679287E1,-1.2297529E1,8.929837E0,5.3104065E2,-1.3689315E3,-4.798502E0,-1.7096016E1,4.3909206E0,-1.1688047E3,1.8643696E1,-4.1609088E-1,-5.1732335E-2,1.5192397E1,4.3907828E2,-1.2650617E1,1.9789287E3,9.6724915E2,2.7714233E3,9.556373E0,2.6875935E1,5.2005722E1,-9.595324E0,1.2645771E1,3.6558495E1,1.594731E1,-2.7893995E1,-4.590095E1,-1.7696815E1,-3.0224493E1,5.067265E0,-1.8184465E1,-3.0237295E1,-1.07423525E1,-1.6093426E1,-2.4952083E0,2.1485195E1,-4.33344E0,-8.403352E0,-2.5971096E1,-1.8577143E1,-8.048353E-1,-1.3342346E1,5.4276323E0,1.4788414E1,2.9342897E1,1.3538454E1,-4.1487045E0,2.9346394E1,1.1531338E1],"categories":[],"categories_nodes":[],"categories_segments":[],"categories_sizes":[],"default_left":[0,0,0,0,0,0,0,0,0,0,0,0,0,0,0,0,0,0,0,0,0,0,0,0,0,0,0,0,0,0,0,0,0,0,0,0,0,0,0,0,0,0,0,0,0,0,0,0,0,0,0,0,0,0,0,0,0,0,0,0,0,0,0,0,0,0,0,0,0,0,0,0,0,0,0,0,0,0,0,0,0,0,0,0,0,0,0,0,0,0,0,0,0,0,0,0,0,0,0,0,0,0,0,0,0,0,0,0,0,0,0,0,0,0,0,0,0,0,0,0,0,0,0,0,0,0,0,0,0,0,0,0,0,0,0,0,0,0,0,0,0,0,0,0,0,0,0,0,0,0,0,0,0,0,0,0,0,0,0,0,0,0,0,0,0,0,0,0,0,0,0,0,0,0,0,0,0,0,0,0,0,0,0,0,0,0,0,0,0,0,0,0,0,0,0,0,0,0,0,0,0,0,0,0,0,0,0,0,0,0,0],"id":1,"left_children":[1,3,5,7,9,11,13,15,17,19,-1,21,-1,23,25,27,-1,29,31,33,35,37,-1,39,41,43,-1,-1,45,47,49,51,53,55,-1,57,59,-1,61,63,-1,65,67,69,71,73,-1,75,77,79,-1,81,-1,-1,83,85,87,89,91,93,95,97,99,101,-1,103,105,-1,-1,107,-1,-1,-1,109,-1,111,113,115,117,-1,119,-1,-1,-1,121,-1,123,125,-1,127,-1,-1,129,131,133,135,137,-1,-1,139,141,-1,-1,143,-1,145,147,-1,-1,-1,-1,149,151,-1,153,-1,-1,155,-1,157,-1,159,-1,161,163,-1,165,-1,167,169,171,-1,173,175,-1,177,-1,-1,-1,179,181,183,185,-1,-1,-1,-1,-1,-1,187,-1,-1,-1,-1,-1,189,-1,-1,-1,191,193,195,-1,-1,-1,197,199,-1,-1,-1,201,-1,-1,-1,-1,203,-1,205,207,209,-1,-1,-1,-1,-1,-1,-1,-1,-1,-1,-1,-1,-1,-1,-1,-1,-1,-1,-1,-1,-1,-1,-1,-1,-1,-1,-1,-1,-1,-1,-1],"loss_changes":[1.0398455E10,3.4163382E9,1.7553894E9,1.2019077E9,9.6984416E8,4.742455E8,1.1246264E9,7.0094285E8,4.295516E8,4.547732E8,0E0,2.7751578E8,0E0,1.842455E8,6.3673805E8,6.1303706E8,0E0,1.3127962E8,2.4909722E8,2.0323866E8,1.8092637E8,2.5279424E8,0E0,1.0642192E8,9.575117E7,2.6989517E8,0E0,0E0,1.2072474E8,1.0343578E8,7.718941E7,2.395792E8,2.024125E8,1.2846214E8,0E0,7.440517E7,1.5818355E8,0E0,1.4671962E8,4.145584E7,0E0,7.178342E7,9.496282E7,2.183054E8,1.7111552E7,8.370253E7,0E0,5.070336E7,3.6313856E7,2.026784E7,0E0,9.5990296E7,0E0,0E0,1.2240765E8,1.0892099E8,1.097821E8,9.51251E7,6.864665E7,5.5206916E7,8.139152E7,6.671065E7,7.252941E7,2.316192E6,0E0,5.373683E7,5.7348736E7,0E0,0E0,5.1055744E7,0E0,0E0,0E0,4.87808E6,0E0,3.459853E7,2.9059968E7,2.292008E7,2.839104E7,0E0,1.0976704E7,0E0,0E0,0E0,1.0798845E8,0E0,3.9165344E7,8.93398E7,0E0,3.12526E7,0E0,0E0,4.9155668E7,2.9535328E7,5.3516116E7,9.685702E7,6.4370196E7,0E0,0E0,5.557619E7,7.170962E7,0E0,0E0,4.1746944E7,0E0,2.310992E7,5.777408E6,0E0,0E0,0E0,0E0,2.8412288E7,1.0724832E7,0E0,2.0367488E7,0E0,0E0,1.9896576E7,0E0,6.367456E6,0E0,6.357963E7,0E0,5.1777504E7,2.4753356E7,0E0,7.7925544E7,0E0,1.0682734E7,2.4130192E7,2.5506794E7,0E0,1.7946442E7,4.8088824E7,0E0,4.541216E7,0E0,0E0,0E0,2.8967296E7,3.795104E7,2.83782E7,1.7419456E7,0E0,0E0,0E0,0E0,0E0,0E0,9.335552E6,0E0,0E0,0E0,0E0,0E0,1.4004736E7,0E0,0E0,0E0,7.679378E7,6.0982576E7,2.15812E7,0E0,0E0,0E0,4.6167332E7,5.494808E7,0E0,0E0,0E0,2.6841664E7,0E0,0E0,0E0,0E0,3.9703732E7,0E0,4.295923E7,4.758203E7,2.6462848E7,0E0,0E0,0E0,0E0,0E0,0E0,0E0,0E0,0E0,0E0,0E0,0E0,0E0,0E0,0E0,0E0,0E0,0E0,0E0,0E0,0E0,0E0,0E0,0E0,0E0,0E0,0E0,0E0,0E0,0E0,0E0],"parents":[2147483647,0,0,1,1,2,2,3,3,4,4,5,5,6,6,7,7,8,8,9,9,11,11,13,13,14,14,15,15,17,17,18,18,19,19,20,20,21,21,23,23,24,24,25,25,28,28,29,29,30,30,31,31,32,32,33,33,35,35,36,36,38,38,39,39,41,41,42,42,43,43,44,44,45,45,47,47,48,48,49,49,51,51,54,54,55,55,56,56,57,57,58,58,59,59,60,60,61,61,62,62,63,63,65,65,66,66,69,69,73,73,75,75,76,76,77,77,78,78,80,80,84,84,86,86,87,87,89,89,92,92,93,93,94,94,95,95,96,96,99,99,100,100,103,103,105,105,106,106,111,111,112,112,114,114,117,117,119,119,121,121,123,123,124,124,126,126,128,128,129,129,130,130,132,132,133,133,135,135,139,139,140,140,141,141,142,142,149,149,155,155,159,159,160,160,161,161,165,165,166,166,170,170,175,175,177,177,178,178,179,179],"right_children":[2,4,6,8,10,12,14,16,18,20,-1,22,-1,24,26,28,-1,30,32,34,36,38,-1,40,42,44,-1,-1,46,48,50,52,54,56,-1,58,60,-1,62,64,-1,66,68,70,72,74,-1,76,78,80,-1,82,-1,-1,84,86,88,90,92,94,96,98,100,102,-1,104,106,-1,-1,108,-1,-1,-1,110,-1,112,114,116,118,-1,120,-1,-1,-1,122,-1,124,126,-1,128,-1,-1,130,132,134,136,138,-1,-1,140,142,-1,-1,144,-1,146,148,-1,-1,-1,-1,150,152,-1,154,-1,-1,156,-1,158,-1,160,-1,162,164,-1,166,-1,168,170,172,-1,174,176,-1,178,-1,-1,-1,180,182,184,186,-1,-1,-1,-1,-1,-1,188,-1,-1,-1,-1,-1,190,-1,-1,-1,192,194,196,-1,-1,-1,198,200,-1,-1,-1,202,-1,-1,-1,-1,204,-1,206,208,210,-1,-1,-1,-1,-1,-1,-1,-1,-1,-1,-1,-1,-1,-1,-1,-1,-1,-1,-1,-1,-1,-1,-1,-1,-1,-1,-1,-1,-1,-1,-1],"split_conditions":[5.1798564E-1,-3.666639E-1,7.319449E-1,-1.4086301E0,1.8733667E0,1.2136372E0,1.524003E0,1.005205E0,2.4390593E-1,-2.0098889E-1,-8.921087E1,5.511167E-1,-4.1036102E1,3.732963E-2,2.0178554E0,-1.0173654E-1,-1.2480995E2,4.6979743E-3,-8.029983E-1,1.1164082E0,-2.270235E-1,-6.9309735E-1,7.090675E1,7.9361457E-1,7.760653E-2,1.0437979E0,1.5957358E2,2.7587564E0,1.6966814E0,-7.5869304E-1,4.1494566E-1,2.0843036E0,-6.3239074E-1,-3.000888E-1,2.8182003E1,-1.9705485E-1,3.038618E-1,-2.6189821E1,-1.9968897E-1,-4.4242587E-2,2.0716226E0,9.4886875E-1,-4.1831207E-2,-5.365902E-2,1.7313334E0,8.0044895E-1,-9.572476E1,6.254506E-1,-8.980814E-1,-7.546967E-1,2.9137194E0,-4.8732886E-1,-7.3507515E1,3.3701565E1,-1.0815492E0,-1.1452416E0,1.2189438E0,5.286795E-1,-8.5085315E-1,-7.3038304E-1,1.0659215E0,9.677965E-2,2.5960505E-1,-1.5918063E-1,1.7122786E1,7.4932194E-1,1.1798395E0,8.6161026E1,3.9090996E1,-4.655733E-1,1.5532277E1,1.1961545E2,7.521421E1,8.448426E-2,-2.6169853E1,2.0356518E-1,-9.202078E-1,-5.934907E-1,8.2687557E-1,-8.802544E0,2.4515726E-1,-3.8798737E1,-2.3856479E-1,2.0464542E1,1.2631063E0,-4.6650845E1,5.714567E-1,-1.2464051E0,2.6444382E1,-7.678362E-1,-3.2439083E1,2.4316284E1,1.3145122E-1,-7.745769E-1,8.704256E-1,1.5999626E0,-5.216085E-1,-1.0670066E1,1.6979782E1,7.488447E-1,-4.93021E-1,5.0464626E1,3.1659185E1,-2.5910974E-1,1.1957906E1,-2.6052183E-1,-5.067078E-1,8.800485E1,5.3947567E1,-6.962098E1,-4.516926E1,4.4659978E-1,4.3787333E-1,-2.892123E1,2.2731516E-1,-2.7187145E1,-7.6987205E0,4.671813E-1,-1.2503415E1,1.8571447E-1,-1.5628116E1,-7.740227E-2,-3.9463627E1,4.0675777E-1,-2.4273752E-1,2.0832312E1,-5.284298E-1,7.5273395E0,-2.5002456E-1,-5.769111E-1,-2.5580494E-2,2.8629038E1,-5.731484E-1,8.968498E-1,-1.7076628E1,-8.907735E-2,4.2792114E1,1.1705297E1,-2.0637386E1,1.0668696E0,-2.4030834E-1,3.6262344E-3,-1.3840162E-3,4.7435696E1,2.2971842E1,4.674727E1,2.3728922E1,7.052279E1,4.5348583E1,-8.285522E-1,-2.0303654E1,-1.5450706E1,-3.0589909E1,-3.6071434E1,-5.8315613E1,-7.7396923E-1,-4.2579094E1,-3.4354492E1,-1.9999605E1,5.55843E-1,-5.0653857E-1,4.346613E-1,-3.4679287E1,-1.2297529E1,8.929837E0,-8.0946904E-1,3.91163E-1,-4.798502E0,-1.7096016E1,4.3909206E0,9.148453E-2,1.8643696E1,-4.1609088E-1,-5.1732335E-2,1.5192397E1,-7.2113127E-1,-1.2650617E1,6.190918E-1,-7.788504E-2,7.2524136E-1,9.556373E0,2.6875935E1,5.2005722E1,-9.595324E0,1.2645771E1,3.6558495E1,1.594731E1,-2.7893995E1,-4.590095E1,-1.7696815E1,-3.0224493E1,5.067265E0,-1.8184465E1,-3.0237295E1,-1.07423525E1,-1.6093426E1,-2.4952083E0,2.1485195E1,-4.33344E0,-8.403352E0,-2.5971096E1,-1.8577143E1,-8.048353E-1,-1.3342346E1,5.4276323E0,1.4788414E1,2.9342897E1,1.3538454E1,-4.1487045E0,2.9346394E1,1.1531338E1],"split_indices":[8,8,9,8,6,77,8,28,0,9,0,5,0,19,3,65,0,13,14,14,11,9,0,2,83,21,0,0,6,9,40,2,4,10,0,38,9,0,12,80,0,8,40,79,15,79,0,68,38,58,0,78,0,0,18,9,21,65,89,84,35,87,58,31,0,33,9,0,0,40,0,0,0,25,0,95,2,15,34,0,16,0,0,0,91,0,54,29,0,51,0,0,8,68,20,2,88,0,0,14,7,0,0,70,0,87,69,0,0,0,0,39,74,0,59,0,0,34,0,73,0,97,0,55,19,0,90,0,37,2,43,0,76,75,0,73,0,0,0,25,94,80,64,0,0,0,0,0,0,28,0,0,0,0,0,66,0,0,0,56,74,51,0,0,0,7,33,0,0,0,14,0,0,0,0,13,0,10,3,37,0,0,0,0,0,0,0,0,0,0,0,0,0,0,0,0,0,0,0,0,0,0,0,0,0,0,0,0,0,0,0],"split_type":[0,0,0,0,0,0,0,0,0,0,0,0,0,0,0,0,0,0,0,0,0,0,0,0,0,0,0,0,0,0,0,0,0,0,0,0,0,0,0,0,0,0,0,0,0,0,0,0,0,0,0,0,0,0,0,0,0,0,0,0,0,0,0,0,0,0,0,0,0,0,0,0,0,0,0,0,0,0,0,0,0,0,0,0,0,0,0,0,0,0,0,0,0,0,0,0,0,0,0,0,0,0,0,0,0,0,0,0,0,0,0,0,0,0,0,0,0,0,0,0,0,0,0,0,0,0,0,0,0,0,0,0,0,0,0,0,0,0,0,0,0,0,0,0,0,0,0,0,0,0,0,0,0,0,0,0,0,0,0,0,0,0,0,0,0,0,0,0,0,0,0,0,0,0,0,0,0,0,0,0,0,0,0,0,0,0,0,0,0,0,0,0,0,0,0,0,0,0,0,0,0,0,0,0,0,0,0,0,0,0,0],"sum_hessian":[2.173E3,1.654E3,5.19E2,7.04E2,9.5E2,2.63E2,2.56E2,8.5E1,6.19E2,9.39E2,1.1E1,2.52E2,1.1E1,1.79E2,7.7E1,7E1,1.5E1,3.97E2,2.22E2,2.91E2,6.48E2,2.41E2,1.1E1,4.6E1,1.33E2,6.6E1,1.1E1,1.7E1,5.3E1,3.32E2,6.5E1,3.6E1,1.86E2,2.78E2,1.3E1,1.45E2,5.03E2,1E1,2.31E2,3.2E1,1.4E1,1.09E2,2.4E1,4.3E1,2.3E1,4.1E1,1.2E1,1.32E2,2E2,5E1,1.5E1,2.5E1,1.1E1,1E1,1.76E2,1.43E2,1.35E2,6E1,8.5E1,2.82E2,2.21E2,3.3E1,1.98E2,2.1E1,1.1E1,4.9E1,6E1,1.4E1,1E1,3.3E1,1E1,1.3E1,1E1,3.1E1,1E1,7.9E1,5.3E1,2.6E1,1.74E2,1E1,4E1,1.1E1,1.4E1,1.1E1,1.65E2,1.1E1,1.32E2,1.25E2,1E1,4.4E1,1.6E1,1.1E1,7.4E1,4.1E1,2.41E2,1.98E2,2.3E1,1.6E1,1.7E1,1.56E2,4.2E1,1.1E1,1E1,3.9E1,1E1,3.1E1,2.9E1,1.4E1,1.9E1,2.1E1,1E1,5.3E1,2.6E1,1.1E1,4.2E1,1E1,1.6E1,1.63E2,1.1E1,2.8E1,1.2E1,1.52E2,1.3E1,1.12E2,2E1,1E1,1.15E2,1.4E1,3E1,4.7E1,2.7E1,1E1,3.1E1,2.28E2,1.3E1,1.85E2,1.3E1,1.3E1,1E1,1.23E2,3.3E1,2.1E1,2.1E1,2.5E1,1.4E1,2.1E1,1E1,1.9E1,1E1,4.3E1,1E1,1.5E1,1.1E1,1.3E1,2.9E1,1.46E2,1.7E1,1.7E1,1.1E1,6.3E1,8.9E1,9.8E1,1.4E1,1E1,1E1,2.8E1,8.7E1,1.8E1,1.2E1,1.2E1,3.5E1,1.3E1,1.4E1,1.3E1,1.8E1,2.11E2,1.7E1,9.8E1,8.7E1,1.12E2,1.1E1,1.5E1,1.8E1,1.1E1,1E1,1E1,1.1E1,1E1,3.3E1,1.5E1,1.31E2,4.3E1,2E1,2.1E1,6.8E1,8.4E1,1.4E1,1E1,1.8E1,6.2E1,2.5E1,2.1E1,1.4E1,1.1E1,2E2,6.6E1,3.2E1,6.8E1,1.9E1,1.01E2,1.1E1],"tree_param":{"num_deleted":"0","num_feature":"98","num_nodes":"211","size_leaf_vector":"1"}},{"base_weights":[1.1186909E-1,-1.2139604E3,3.8641304E3,-2.8658687E3,1.1916607E1,2.0544573E3,5.708059E3,-6.3449087E3,-2.3786697E3,1.24898315E2,-8.8393105E1,2.336635E3,-4.065994E1,4.3042915E3,8.874342E3,-4.8991323E3,-1.23639854E2,-2.995465E3,-1.2671753E3,-9.0148816E2,5.865007E2,2.0944648E3,7.025678E1,2.50954E3,4.9016724E3,7.4994873E3,1.5811081E2,2.732703E0,-6.5325415E3,-3.2494172E3,-1.6687748E3,-3.618558E3,-7.9515204E2,-1.0835948E3,2.7920315E1,-3.8602576E2,8.670609E2,-2.5951733E1,2.3077905E3,3.4809077E3,2.052287E0,4.419815E3,6.825779E3,5.459939E3,9.832932E1,-5.463423E3,-9.484115E1,-3.9891724E3,-2.7914324E3,-2.2501448E3,2.886403E0,-1.7879312E3,-7.2833694E1,3.3395187E1,-1.0476166E3,-1.7348765E3,-3.86035E2,-1.2211843E3,2.1084279E2,3.7325262E2,1.4926497E3,3.6195773E2,2.6286475E3,4.2959526E3,1.6965828E1,3.386344E3,5.194466E3,8.535686E1,3.8735626E1,7.860764E1,2.9061575E1,-6.2793315E3,-2.5931946E1,-3.3935566E3,-5.0460776E3,-1.5777273E3,-2.95525E3,-8.72252E0,-2.5649417E3,-3.844308E1,-2.363384E-1,2.027695E1,-1.2636174E3,-4.6223213E1,-1.4613109E3,-6.454376E2,2.620398E1,-5.3081067E2,-3.500952E1,2.4093384E1,-1.4372775E2,1.4220475E3,1.8968802E2,1.6966217E3,-2.6081268E2,-1.0569641E1,1.6819418E1,2.942138E3,1.4229108E3,3.1312408E1,5.0056087E1,3.907077E3,1.1849197E1,3.9914634E3,6.30452E3,-6.895642E1,-4.4758625E1,-3.8864307E3,-2.393265E3,-3.553325E1,-5.6441883E1,-2.6939993E1,-7.626262E0,-3.057815E3,-1.2388801E1,-2.9321929E3,-1.5483857E1,-1.01323157E3,-3.9097183E1,-1.6874652E3,-1.747993E2,2.0642927E1,-8.968306E2,3.722268E2,-1.6149562E3,-7.504183E2,9.014462E2,2.8368774E1,8.912606E2,3.038855E2,-1.6918058E1,1.4961025E3,4.239476E1,1.1596605E1,-2.0449776E1,2.5922786E3,4.1315625E3,1.0795686E2,2.673187E3,4.6979584E1,2.2757439E1,4.6301044E1,2.3513205E1,6.985282E1,4.493632E1,-3.2487559E3,-4.8901077E1,-1.2390821E1,-2.9962608E1,-2.0026605E3,-3.2072505E3,-3.4030037E1,-1.9816277E1,-2.4602519E2,-1.5475425E3,-1.405557E3,-3.4355614E1,-1.2185735E1,8.848657E0,5.263217E2,-1.3556328E3,-4.2978406E0,1.4105557E1,-2.3144497E1,-8.391741E0,4.350389E0,-1.157655E3,1.8470575E1,-4.1220754E-1,-5.1251788E-2,1.5048469E1,4.3465015E2,-1.2531138E1,1.3501714E3,3.33425E1,3.257534E3,2.1581853E3,2.6623974E1,5.1513035E1,-9.507366E0,1.253081E1,3.5379547E1,1.4867869E1,-1.7894535E1,-3.9038464E1,-3.0688494E1,-8.644356E0,-3.539888E1,-2.747308E1,5.0177445E0,-1.801128E1,-2.9948666E1,-1.0636485E1,-1.5934384E1,-2.4719195E0,-8.094264E0,1.662206E1,-8.320652E0,-2.5721375E1,-1.8399817E1,-7.973235E-1,-1.322004E1,5.3736258E0,1.8505575E1,7.6619463E0,3.801205E1,2.2562708E1,1.2558842E1,2.791964E1],"categories":[],"categories_nodes":[],"categories_segments":[],"categories_sizes":[],"default_left":[0,0,0,0,0,0,0,0,0,0,0,0,0,0,0,0,0,0,0,0,0,0,0,0,0,0,0,0,0,0,0,0,0,0,0,0,0,0,0,0,0,0,0,0,0,0,0,0,0,0,0,0,0,0,0,0,0,0,0,0,0,0,0,0,0,0,0,0,0,0,0,0,0,0,0,0,0,0,0,0,0,0,0,0,0,0,0,0,0,0,0,0,0,0,0,0,0,0,0,0,0,0,0,0,0,0,0,0,0,0,0,0,0,0,0,0,0,0,0,0,0,0,0,0,0,0,0,0,0,0,0,0,0,0,0,0,0,0,0,0,0,0,0,0,0,0,0,0,0,0,0,0,0,0,0,0,0,0,0,0,0,0,0,0,0,0,0,0,0,0,0,0,0,0,0,0,0,0,0,0,0,0,0,0,0,0,0,0,0,0,0,0,0,0,0,0,0,0,0,0,0,0,0,0,0,0,0,0,0],"id":2,"left_children":[1,3,5,7,9,11,13,15,17,19,-1,21,-1,23,25,27,-1,29,31,33,35,37,-1,39,41,43,-1,-1,45,47,49,51,53,55,-1,57,59,-1,61,63,-1,65,67,69,-1,71,-1,73,75,77,-1,79,-1,-1,81,83,85,87,89,91,93,95,97,99,-1,101,103,-1,-1,-1,-1,105,-1,107,109,111,113,-1,115,-1,-1,-1,117,-1,119,121,-1,123,-1,-1,125,127,129,131,133,-1,-1,135,137,-1,-1,139,-1,141,143,-1,-1,145,147,-1,-1,-1,-1,149,-1,151,-1,153,-1,155,157,-1,159,161,163,165,167,-1,169,171,-1,173,-1,-1,-1,175,177,179,181,-1,-1,-1,-1,-1,-1,183,-1,-1,-1,185,187,-1,-1,189,191,193,-1,-1,-1,195,197,-1,-1,-1,-1,-1,199,-1,-1,-1,-1,201,-1,203,-1,205,207,-1,-1,-1,-1,-1,-1,-1,-1,-1,-1,-1,-1,-1,-1,-1,-1,-1,-1,-1,-1,-1,-1,-1,-1,-1,-1,-1,-1,-1,-1,-1,-1],"loss_changes":[1.0203356E10,3.3514693E9,1.7234652E9,1.1798717E9,9.5212954E8,4.654432E8,1.1040968E9,6.8782E8,4.2125414E8,4.458842E8,0E0,2.7257805E8,0E0,1.8068582E8,6.253112E8,6.016394E8,0E0,1.2866995E8,2.4463203E8,1.9942898E8,1.7741582E8,2.4809082E8,0E0,1.044873E8,9.406874E7,2.6517734E8,0E0,0E0,1.1858586E8,1.0168397E8,7.575632E7,2.3520723E8,1.9869997E8,1.2608218E8,0E0,7.303554E7,1.5513898E8,0E0,1.4389402E8,4.0703584E7,0E0,7.047347E7,9.313677E7,2.1014054E8,0E0,8.207386E7,0E0,6.156467E7,3.689203E7,1.9884288E7,0E0,9.423874E7,0E0,0E0,1.2013794E8,1.0699174E8,1.07754504E8,9.414904E7,6.738516E7,5.4213868E7,7.98425E7,6.54582E7,7.103309E7,2.51024E6,0E0,5.268813E7,5.629504E7,0E0,0E0,0E0,0E0,4.704E6,0E0,3.1619136E7,1.8336128E7,2.2512096E7,2.8427136E7,0E0,1.0766432E7,0E0,0E0,0E0,1.0602122E8,0E0,3.840144E7,8.768344E7,0E0,4.7594284E7,0E0,0E0,4.8233748E7,2.901248E7,5.25107E7,9.512563E7,6.319608E7,0E0,0E0,5.4622464E7,7.04058E7,0E0,0E0,4.091629E7,0E0,2.2631936E7,5.59424E6,0E0,0E0,1.8674304E7,1.7166416E7,0E0,0E0,0E0,0E0,2.0697472E7,0E0,6.235072E6,0E0,6.233805E7,0E0,5.0857856E7,2.4305344E7,0E0,7.6455176E7,2.3090514E7,9.996176E6,2.367619E7,2.5035246E7,0E0,1.7608032E7,4.716917E7,0E0,4.5391424E7,0E0,0E0,0E0,2.8778688E7,3.722291E7,2.7862732E7,1.7310944E7,0E0,0E0,0E0,0E0,0E0,0E0,2.7429344E7,0E0,0E0,0E0,2.6472672E7,1.3070848E7,0E0,0E0,7.5329704E7,5.9846144E7,2.1151984E7,0E0,0E0,0E0,4.534585E7,5.390896E7,0E0,0E0,0E0,0E0,0E0,2.6331132E7,0E0,0E0,0E0,0E0,3.896161E7,0E0,4.942733E7,0E0,1.700832E7,4.1098656E7,0E0,0E0,0E0,0E0,0E0,0E0,0E0,0E0,0E0,0E0,0E0,0E0,0E0,0E0,0E0,0E0,0E0,0E0,0E0,0E0,0E0,0E0,0E0,0E0,0E0,0E0,0E0,0E0,0E0,0E0,0E0,0E0],"parents":[2147483647,0,0,1,1,2,2,3,3,4,4,5,5,6,6,7,7,8,8,9,9,11,11,13,13,14,14,15,15,17,17,18,18,19,19,20,20,21,21,23,23,24,24,25,25,28,28,29,29,30,30,31,31,32,32,33,33,35,35,36,36,38,38,39,39,41,41,42,42,43,43,45,45,47,47,48,48,49,49,51,51,54,54,55,55,56,56,57,57,58,58,59,59,60,60,61,61,62,62,63,63,65,65,66,66,71,71,73,73,74,74,75,75,76,76,78,78,82,82,84,84,85,85,87,87,90,90,91,91,92,92,93,93,94,94,97,97,98,98,101,101,103,103,104,104,107,107,108,108,113,113,115,115,117,117,119,119,120,120,122,122,123,123,124,124,125,125,126,126,128,128,129,129,131,131,135,135,136,136,137,137,138,138,145,145,149,149,150,150,153,153,154,154,155,155,159,159,160,160,166,166,171,171,173,173,175,175,176,176],"right_children":[2,4,6,8,10,12,14,16,18,20,-1,22,-1,24,26,28,-1,30,32,34,36,38,-1,40,42,44,-1,-1,46,48,50,52,54,56,-1,58,60,-1,62,64,-1,66,68,70,-1,72,-1,74,76,78,-1,80,-1,-1,82,84,86,88,90,92,94,96,98,100,-1,102,104,-1,-1,-1,-1,106,-1,108,110,112,114,-1,116,-1,-1,-1,118,-1,120,122,-1,124,-1,-1,126,128,130,132,134,-1,-1,136,138,-1,-1,140,-1,142,144,-1,-1,146,148,-1,-1,-1,-1,150,-1,152,-1,154,-1,156,158,-1,160,162,164,166,168,-1,170,172,-1,174,-1,-1,-1,176,178,180,182,-1,-1,-1,-1,-1,-1,184,-1,-1,-1,186,188,-1,-1,190,192,194,-1,-1,-1,196,198,-1,-1,-1,-1,-1,200,-1,-1,-1,-1,202,-1,204,-1,206,208,-1,-1,-1,-1,-1,-1,-1,-1,-1,-1,-1,-1,-1,-1,-1,-1,-1,-1,-1,-1,-1,-1,-1,-1,-1,-1,-1,-1,-1,-1,-1,-1],"split_conditions":[5.1798564E-1,-3.666639E-1,7.319449E-1,-1.4086301E0,1.8733667E0,1.2136372E0,1.524003E0,1.005205E0,2.4390593E-1,-2.0098889E-1,-8.8393105E1,5.511167E-1,-4.065994E1,3.732963E-2,2.0178554E0,-1.0173654E-1,-1.23639854E2,4.6979743E-3,-8.029983E-1,1.1164082E0,-2.270235E-1,-6.9309735E-1,7.025678E1,7.9361457E-1,7.760653E-2,7.785101E-1,1.5811081E2,2.732703E0,1.6966814E0,-7.78505E-1,4.1494566E-1,2.0843036E0,-6.3239074E-1,-3.000888E-1,2.7920315E1,-1.9705485E-1,3.038618E-1,-2.5951733E1,-1.9968897E-1,-4.4242587E-2,2.052287E0,9.4886875E-1,-4.1831207E-2,-4.0759695E-1,9.832932E1,8.0044895E-1,-9.484115E1,6.690794E-1,-8.980814E-1,-7.546967E-1,2.886403E0,-4.8732886E-1,-7.2833694E1,3.3395187E1,-1.0815492E0,-1.1452416E0,1.2189438E0,3.766896E-2,-8.5085315E-1,-7.3038304E-1,1.0659215E0,9.677965E-2,2.5960505E-1,-4.5204195E-1,1.6965828E1,7.4932194E-1,1.1798395E0,8.535686E1,3.8735626E1,7.860764E1,2.9061575E1,8.448426E-2,-2.5931946E1,2.0356518E-1,2.4147518E-1,-5.934907E-1,8.2687557E-1,-8.72252E0,2.4515726E-1,-3.844308E1,-2.363384E-1,2.027695E1,1.2631063E0,-4.6223213E1,5.714567E-1,-1.2464051E0,2.620398E1,-1.7461398E-1,-3.500952E1,2.4093384E1,1.3145122E-1,-7.745769E-1,8.704256E-1,1.5999626E0,-5.216085E-1,-1.0569641E1,1.6819418E1,7.488447E-1,-4.93021E-1,3.1312408E1,5.0056087E1,-2.5910974E-1,1.1849197E1,-2.6052183E-1,-5.067078E-1,-6.895642E1,-4.4758625E1,3.2325152E-1,-4.6999556E-1,-3.553325E1,-5.6441883E1,-2.6939993E1,-7.626262E0,-9.676134E-1,-1.2388801E1,1.8571447E-1,-1.5483857E1,-7.740227E-2,-3.9097183E1,4.0675777E-1,-2.4273752E-1,2.0642927E1,-5.284298E-1,1.6567917E-1,6.5441763E-1,-5.769111E-1,-2.5580494E-2,2.8368774E1,-5.731484E-1,8.968498E-1,-1.6918058E1,1.1789167E0,4.239476E1,1.1596605E1,-2.0449776E1,-7.6355165E-1,-2.4030834E-1,3.6262344E-3,-5.132217E-2,4.6979584E1,2.2757439E1,4.6301044E1,2.3513205E1,6.985282E1,4.493632E1,-4.7972417E-1,-4.8901077E1,-1.2390821E1,-2.9962608E1,-1.7403778E-1,2.7124298E-1,-3.4030037E1,-1.9816277E1,5.55843E-1,-5.0653857E-1,4.346613E-1,-3.4355614E1,-1.2185735E1,8.848657E0,2.9984963E-1,3.91163E-1,-4.2978406E0,1.4105557E1,-2.3144497E1,-8.391741E0,4.350389E0,9.148453E-2,1.8470575E1,-4.1220754E-1,-5.1251788E-2,1.5048469E1,-7.2113127E-1,-1.2531138E1,-8.907735E-2,3.33425E1,-4.934779E-1,-2.7019915E-1,2.6623974E1,5.1513035E1,-9.507366E0,1.253081E1,3.5379547E1,1.4867869E1,-1.7894535E1,-3.9038464E1,-3.0688494E1,-8.644356E0,-3.539888E1,-2.747308E1,5.0177445E0,-1.801128E1,-2.9948666E1,-1.0636485E1,-1.5934384E1,-2.4719195E0,-8.094264E0,1.662206E1,-8.320652E0,-2.5721375E1,-1.8399817E1,-7.973235E-1,-1.322004E1,5.3736258E0,1.8505575E1,7.6619463E0,3.801205E1,2.2562708E1,1.2558842E1,2.791964E1],"split_indices":[8,8,9,8,6,77,8,28,0,9,0,5,0,19,3,65,0,13,14,14,11,9,0,2,83,26,0,0,6,9,40,2,4,10,0,38,9,0,12,80,0,8,40,40,0,79,0,68,38,58,0,78,0,0,18,9,21,27,89,84,35,87,58,70,0,33,9,0,0,0,0,25,0,95,59,15,34,0,16,0,0,0,91,0,54,29,0,63,0,0,8,68,20,2,88,0,0,14,7,0,0,70,0,87,69,0,0,69,34,0,0,0,0,21,0,73,0,97,0,55,19,0,90,77,88,2,43,0,76,75,0,97,0,0,0,6,94,80,96,0,0,0,0,0,0,1,0,0,0,53,96,0,0,56,74,51,0,0,0,34,33,0,0,0,0,0,14,0,0,0,0,13,0,73,0,56,70,0,0,0,0,0,0,0,0,0,0,0,0,0,0,0,0,0,0,0,0,0,0,0,0,0,0,0,0,0,0,0,0],"split_type":[0,0,0,0,0,0,0,0,0,0,0,0,0,0,0,0,0,0,0,0,0,0,0,0,0,0,0,0,0,0,0,0,0,0,0,0,0,0,0,0,0,0,0,0,0,0,0,0,0,0,0,0,0,0,0,0,0,0,0,0,0,0,0,0,0,0,0,0,0,0,0,0,0,0,0,0,0,0,0,0,0,0,0,0,0,0,0,0,0,0,0,0,0,0,0,0,0,0,0,0,0,0,0,0,0,0,0,0,0,0,0,0,0,0,0,0,0,0,0,0,0,0,0,0,0,0,0,0,0,0,0,0,0,0,0,0,0,0,0,0,0,0,0,0,0,0,0,0,0,0,0,0,0,0,0,0,0,0,0,0,0,0,0,0,0,0,0,0,0,0,0,0,0,0,0,0,0,0,0,0,0,0,0,0,0,0,0,0,0,0,0,0,0,0,0,0,0,0,0,0,0,0,0,0,0,0,0,0,0],"sum_hessian":[2.173E3,1.654E3,5.19E2,7.04E2,9.5E2,2.63E2,2.56E2,8.5E1,6.19E2,9.39E2,1.1E1,2.52E2,1.1E1,1.79E2,7.7E1,7E1,1.5E1,3.97E2,2.22E2,2.91E2,6.48E2,2.41E2,1.1E1,4.6E1,1.33E2,6.6E1,1.1E1,1.7E1,5.3E1,3.32E2,6.5E1,3.6E1,1.86E2,2.78E2,1.3E1,1.45E2,5.03E2,1E1,2.31E2,3.2E1,1.4E1,1.09E2,2.4E1,3.7E1,2.9E1,4.1E1,1.2E1,1.24E2,2.08E2,5E1,1.5E1,2.5E1,1.1E1,1E1,1.76E2,1.43E2,1.35E2,6E1,8.5E1,2.82E2,2.21E2,3.3E1,1.98E2,2.1E1,1.1E1,4.9E1,6E1,1.4E1,1E1,1.8E1,1.9E1,3.1E1,1E1,8.2E1,4.2E1,2.6E1,1.82E2,1E1,4E1,1.1E1,1.4E1,1.1E1,1.65E2,1.1E1,1.32E2,1.25E2,1E1,4.7E1,1.3E1,1.1E1,7.4E1,4.1E1,2.41E2,1.98E2,2.3E1,1.6E1,1.7E1,1.56E2,4.2E1,1E1,1.1E1,3.9E1,1E1,3.1E1,2.9E1,2.1E1,1E1,5.3E1,2.9E1,1.4E1,2.8E1,1E1,1.6E1,1.71E2,1.1E1,2.8E1,1.2E1,1.52E2,1.3E1,1.12E2,2E1,1E1,1.15E2,2.6E1,2.1E1,4.7E1,2.7E1,1E1,3.1E1,2.28E2,1.3E1,1.85E2,1.3E1,1.3E1,1E1,1.23E2,3.3E1,2.1E1,2.1E1,2.5E1,1.4E1,2.1E1,1E1,1.9E1,1E1,3.5E1,1.8E1,1.1E1,1.8E1,2.3E1,1.48E2,1.7E1,1.1E1,6.3E1,8.9E1,9.8E1,1.4E1,1E1,1E1,2.8E1,8.7E1,1.5E1,1.1E1,1E1,1.1E1,1.2E1,3.5E1,1.3E1,1.4E1,1.3E1,1.8E1,2.11E2,1.7E1,1.73E2,1.2E1,4.6E1,7.7E1,1.5E1,1.8E1,1.1E1,1E1,1.1E1,1E1,1.2E1,2.3E1,1.1E1,1.2E1,8.2E1,6.6E1,4.3E1,2E1,2.1E1,6.8E1,8.4E1,1.4E1,1.3E1,1.5E1,6.2E1,2.5E1,2.1E1,1.4E1,1.1E1,2E2,9.2E1,8.1E1,2.8E1,1.8E1,3.3E1,4.4E1],"tree_param":{"num_deleted":"0","num_feature":"98","num_nodes":"209","size_leaf_vector":"1"}},{"base_weights":[1.360296E-1,-1.2024506E3,3.8275989E3,-2.8385862E3,1.172197E1,2.0348306E3,5.654304E3,-6.2855923E3,-2.3558748E3,1.23667015E2,-8.758283E1,2.3143872E3,-4.0287224E1,4.2639746E3,8.790267E3,-4.853405E3,-1.2248073E2,-2.9666775E3,-1.2551785E3,-8.9265497E2,5.8074304E2,2.0743994E3,6.9612755E1,2.4865806E3,4.8555684E3,7.4275674E3,1.5666147E2,2.7068934E0,-6.4715586E3,-3.2180923E3,-1.653226E3,-3.5853862E3,-7.874092E2,-1.0730492E3,2.7661055E1,-3.823671E2,8.58587E2,-2.5715807E1,2.2857415E3,3.4490784E3,2.0331328E0,4.3780366E3,6.762485E3,5.726347E3,1.0236988E4,-5.4121133E3,-9.396569E1,-3.9512021E3,-2.7642317E3,-2.2291738E3,2.8593433E0,-1.7715394E3,-7.216605E1,3.3091595E1,-1.0375496E3,-1.7182383E3,-3.8201782E2,8.555694E1,-1.4344979E3,3.6954153E2,1.4781423E3,-2.4408734E2,2.525556E3,4.256692E3,1.6810307E1,3.3541123E3,5.145548E3,8.456018E1,3.8383484E1,6.927577E3,1.4928782E1,1.1761985E2,7.365447E1,-6.220092E3,-2.5696201E1,-3.3614065E3,-4.997756E3,-1.5632302E3,-2.9263237E3,-8.643225E0,-2.5409834E3,-3.8090687E1,-2.3413265E-1,2.009108E1,-1.2515396E3,-4.5799496E1,-1.4471196E3,-6.390219E2,2.5965761E1,2.5898998E1,-2.1480533E2,8.251972E0,-2.2812112E3,5.0656836E2,-1.0043994E3,1.7264369E3,5.4441517E1,-1.6382154E1,1.1722307E1,2.8259443E3,1.2037909E3,4.9605667E1,3.1018559E1,3.8697498E3,1.1741478E1,3.9537305E3,6.2453013E3,8.641035E1,5.296104E1,-6.8298195E1,-4.4351727E1,-3.8495264E3,-2.370744E3,-3.5201607E1,-5.589693E1,-5.0214725E0,-2.3786201E1,-3.027831E3,-1.2275236E1,-2.9047278E3,-1.534093E1,-1.00344946E3,-3.873414E1,-1.6152579E3,2.2917707E0,2.0455263E1,-8.8808234E2,-4.8346402E2,1.8074507E1,-1.3277378E3,-4.067454E1,2.5117825E1,3.6361298E2,-2.6117975E1,1.6346174E0,1.5198583E3,4.200109E1,1.2541086E1,-1.2189967E1,2.4886987E3,3.9891736E3,2.6007414E1,2.4391632E1,4.6527855E1,2.2545036E1,4.585908E1,2.3299448E1,6.9189224E1,4.4527805E1,-3.2178499E3,-4.8437805E1,-1.2277239E1,-2.9678755E1,-1.9842728E3,-3.1755999E3,-3.370864E1,-1.9634626E1,-1.4668695E3,-1.2668179E2,-1.3543301E3,-2.727873E3,5.2135254E2,-1.3424634E3,-1.398934E3,7.159432E1,-2.0522285E1,-3.5081825E0,5.954201E2,-4.3535715E2,1.9594628E3,8.097547E2,3.1817573E3,2.0745103E3,2.5776625E1,4.9418647E3,-1.07903595E1,1.229145E1,-1.7729353E1,-3.8664345E1,-3.0407179E1,-8.564562E0,-3.5049156E1,-2.7202448E1,2.2231272E-1,-2.0179373E1,1.0107052E1,-1.2189235E1,-1.0465897E1,-2.1082842E1,-3.6683945E1,-1.453861E1,2.1161236E1,-4.2937555E0,-8.238767E0,-2.5474054E1,-1.907089E1,-3.0164387E0,4.844258E0,-7.3511095E0,9.860354E0,-9.2540157E-1,1.166565E1,-8.623506E0,1.5971222E1,2.937681E1,-9.415105E-1,1.7430151E1,3.8148304E1,2.231402E1,1.2550561E1,2.7011156E1,3.241155E1,6.193314E1],"categories":[],"categories_nodes":[],"categories_segments":[],"categories_sizes":[],"default_left":[0,0,0,0,0,0,0,0,0,0,0,0,0,0,0,0,0,0,0,0,0,0,0,0,0,0,0,0,0,0,0,0,0,0,0,0,0,0,0,0,0,0,0,0,0,0,0,0,0,0,0,0,0,0,0,0,0,0,0,0,0,0,0,0,0,0,0,0,0,0,0,0,0,0,0,0,0,0,0,0,0,0,0,0,0,0,0,0,0,0,0,0,0,0,0,0,0,0,0,0,0,0,0,0,0,0,0,0,0,0,0,0,0,0,0,0,0,0,0,0,0,0,0,0,0,0,0,0,0,0,0,0,0,0,0,0,0,0,0,0,0,0,0,0,0,0,0,0,0,0,0,0,0,0,0,0,0,0,0,0,0,0,0,0,0,0,0,0,0,0,0,0,0,0,0,0,0,0,0,0,0,0,0,0,0,0,0,0,0,0,0,0,0,0,0,0,0,0,0,0,0,0,0,0,0,0,0,0,0,0,0,0,0],"id":3,"left_children":[1,3,5,7,9,11,13,15,17,19,-1,21,-1,23,25,27,-1,29,31,33,35,37,-1,39,41,43,-1,-1,45,47,49,51,53,55,-1,57,59,-1,61,63,-1,65,67,69,71,73,-1,75,77,79,-1,81,-1,-1,83,85,87,89,91,93,95,97,99,101,-1,103,105,-1,-1,107,-1,-1,-1,109,-1,111,113,115,117,-1,119,-1,-1,-1,121,-1,123,125,-1,-1,127,-1,129,131,133,135,137,-1,-1,139,141,-1,-1,143,-1,145,147,-1,-1,-1,-1,149,151,-1,-1,-1,-1,153,-1,155,-1,157,-1,159,-1,-1,161,163,-1,165,-1,-1,167,-1,-1,169,-1,-1,-1,171,173,175,-1,-1,-1,-1,-1,-1,-1,177,-1,-1,-1,179,181,-1,-1,183,185,187,189,191,193,195,197,-1,-1,199,201,203,205,207,209,-1,211,-1,-1,-1,-1,-1,-1,-1,-1,-1,-1,-1,-1,-1,-1,-1,-1,-1,-1,-1,-1,-1,-1,-1,-1,-1,-1,-1,-1,-1,-1,-1,-1,-1,-1,-1,-1,-1,-1],"loss_changes":[1.0011211E10,3.2877752E9,1.6914217E9,1.158248E9,9.3473555E8,4.5683187E8,1.0830438E9,6.7494246E8,4.1310746E8,4.371827E8,0E0,2.6770445E8,0E0,1.7719552E8,6.1447936E8,5.904534E8,0E0,1.2610765E8,2.4024672E8,1.9569381E8,1.7399698E8,2.4349568E8,0E0,1.0258781E8,9.241574E7,2.616023E8,0E0,0E0,1.1648461E8,9.987712E7,7.434982E7,2.309151E8,1.9505555E8,1.2373459E8,0E0,7.200106E7,1.5216109E8,0E0,1.4136858E8,3.9965024E7,0E0,6.918758E7,9.134605E7,2.1341427E8,1.8465792E7,8.047706E7,0E0,6.035725E7,3.6112E7,1.9508016E7,0E0,9.251915E7,0E0,0E0,1.1791038E8,1.0509661E8,1.0576874E8,7.728175E7,8.798157E7,5.3788292E7,7.838246E7,4.3385476E7,8.07712E7,2.495968E6,0E0,5.1659904E7,5.526067E7,0E0,0E0,4.928192E7,0E0,0E0,0E0,4.534656E6,0E0,3.1009408E7,1.7933056E7,2.2165888E7,2.7839872E7,0E0,1.0560176E7,0E0,0E0,0E0,1.0408973E8,0E0,3.785619E7,8.606206E7,0E0,0E0,5.0857124E7,0E0,5.0802944E7,7.304397E7,4.9234584E7,9.019686E7,5.3470628E7,0E0,0E0,5.754675E7,5.9591616E7,0E0,0E0,4.010208E7,0E0,2.2163808E7,5.415936E6,0E0,0E0,0E0,0E0,1.8327936E7,1.6832256E7,0E0,0E0,0E0,0E0,2.0222208E7,0E0,6.105424E6,0E0,6.197987E7,0E0,3.1433344E7,0E0,0E0,7.4988664E7,4.1767576E7,0E0,1.5558728E7,0E0,0E0,4.5079316E7,0E0,0E0,5.3354304E7,0E0,0E0,0E0,3.2439104E7,3.7016704E7,3.0575716E7,0E0,0E0,0E0,0E0,0E0,0E0,0E0,2.6882464E7,0E0,0E0,0E0,2.5991184E7,1.2809088E7,0E0,0E0,8.210438E7,6.831625E7,2.0995712E7,2.1027856E7,4.4878224E7,5.2889536E7,1.6710144E7,1.767384E7,0E0,0E0,5.0612084E7,3.8626548E7,3.3588576E7,5.8371084E7,2.096816E7,4.179571E7,0E0,2.4621856E7,0E0,0E0,0E0,0E0,0E0,0E0,0E0,0E0,0E0,0E0,0E0,0E0,0E0,0E0,0E0,0E0,0E0,0E0,0E0,0E0,0E0,0E0,0E0,0E0,0E0,0E0,0E0,0E0,0E0,0E0,0E0,0E0,0E0,0E0,0E0,0E0,0E0,0E0],"parents":[2147483647,0,0,1,1,2,2,3,3,4,4,5,5,6,6,7,7,8,8,9,9,11,11,13,13,14,14,15,15,17,17,18,18,19,19,20,20,21,21,23,23,24,24,25,25,28,28,29,29,30,30,31,31,32,32,33,33,35,35,36,36,38,38,39,39,41,41,42,42,43,43,44,44,45,45,47,47,48,48,49,49,51,51,54,54,55,55,56,56,57,57,58,58,59,59,60,60,61,61,62,62,63,63,65,65,66,66,69,69,73,73,75,75,76,76,77,77,78,78,80,80,84,84,86,86,87,87,90,90,92,92,93,93,94,94,95,95,96,96,99,99,100,100,103,103,105,105,106,106,111,111,112,112,117,117,119,119,121,121,123,123,126,126,127,127,129,129,132,132,135,135,139,139,140,140,141,141,149,149,153,153,154,154,157,157,158,158,159,159,160,160,161,161,162,162,163,163,164,164,167,167,168,168,169,169,170,170,171,171,172,172,174,174],"right_children":[2,4,6,8,10,12,14,16,18,20,-1,22,-1,24,26,28,-1,30,32,34,36,38,-1,40,42,44,-1,-1,46,48,50,52,54,56,-1,58,60,-1,62,64,-1,66,68,70,72,74,-1,76,78,80,-1,82,-1,-1,84,86,88,90,92,94,96,98,100,102,-1,104,106,-1,-1,108,-1,-1,-1,110,-1,112,114,116,118,-1,120,-1,-1,-1,122,-1,124,126,-1,-1,128,-1,130,132,134,136,138,-1,-1,140,142,-1,-1,144,-1,146,148,-1,-1,-1,-1,150,152,-1,-1,-1,-1,154,-1,156,-1,158,-1,160,-1,-1,162,164,-1,166,-1,-1,168,-1,-1,170,-1,-1,-1,172,174,176,-1,-1,-1,-1,-1,-1,-1,178,-1,-1,-1,180,182,-1,-1,184,186,188,190,192,194,196,198,-1,-1,200,202,204,206,208,210,-1,212,-1,-1,-1,-1,-1,-1,-1,-1,-1,-1,-1,-1,-1,-1,-1,-1,-1,-1,-1,-1,-1,-1,-1,-1,-1,-1,-1,-1,-1,-1,-1,-1,-1,-1,-1,-1,-1,-1],"split_conditions":[5.1798564E-1,-3.666639E-1,7.319449E-1,-1.4086301E0,1.8733667E0,1.2136372E0,1.524003E0,1.005205E0,2.4390593E-1,-2.0098889E-1,-8.758283E1,5.511167E-1,-4.0287224E1,3.732963E-2,2.0178554E0,-1.0173654E-1,-1.2248073E2,4.6979743E-3,-8.029983E-1,1.1164082E0,-2.270235E-1,-6.9309735E-1,6.9612755E1,7.9361457E-1,7.760653E-2,1.0437979E0,1.5666147E2,2.7068934E0,1.6966814E0,-7.78505E-1,4.1494566E-1,2.0843036E0,-6.3239074E-1,-3.000888E-1,2.7661055E1,3.4587204E-1,3.038618E-1,-2.5715807E1,-4.4624928E-1,-4.4242587E-2,2.0331328E0,9.4886875E-1,-4.1831207E-2,-5.365902E-2,1.7313334E0,8.0044895E-1,-9.396569E1,6.690794E-1,-8.980814E-1,-7.546967E-1,2.8593433E0,-4.8732886E-1,-7.216605E1,3.3091595E1,-1.0815492E0,-1.1452416E0,1.2189438E0,-8.120522E-1,-7.8508055E-1,1.2030015E0,8.57309E-1,9.677965E-2,3.0973744E-1,-1.5918063E-1,1.6810307E1,7.4932194E-1,1.1798395E0,8.456018E1,3.8383484E1,-4.655733E-1,1.4928782E1,1.1761985E2,7.365447E1,8.448426E-2,-2.5696201E1,2.0356518E-1,2.4147518E-1,2.84061E-1,8.2687557E-1,-8.643225E0,2.4515726E-1,-3.8090687E1,-2.3413265E-1,2.009108E1,1.2631063E0,-4.5799496E1,1.047817E0,-1.2464051E0,2.5965761E1,2.5898998E1,3.833867E-1,8.251972E0,4.1226512E-1,-9.613725E-1,-2.7116162E-1,1.5999626E0,-5.216085E-1,-1.6382154E1,1.1722307E1,7.305098E-1,-4.93021E-1,4.9605667E1,3.1018559E1,-2.5910974E-1,1.1741478E1,-2.6052183E-1,-5.067078E-1,8.641035E1,5.296104E1,-6.8298195E1,-4.4351727E1,3.2325152E-1,-4.6999556E-1,-3.5201607E1,-5.589693E1,-5.0214725E0,-2.3786201E1,-9.676134E-1,-1.2275236E1,1.8571447E-1,-1.534093E1,9.300257E-2,-3.873414E1,4.0675777E-1,2.2917707E0,2.0455263E1,-5.284298E-1,-1.3257323E-2,1.8074507E1,-1.9705485E-1,-4.067454E1,2.5117825E1,5.047533E-1,-2.6117975E1,1.6346174E0,5.2385356E-2,4.200109E1,1.2541086E1,-1.2189967E1,-7.6355165E-1,-2.4030834E-1,-2.5701683E-2,2.4391632E1,4.6527855E1,2.2545036E1,4.585908E1,2.3299448E1,6.9189224E1,4.4527805E1,-4.7972417E-1,-4.8437805E1,-1.2277239E1,-2.9678755E1,-1.7403778E-1,2.7124298E-1,-3.370864E1,-1.9634626E1,-5.5529267E-1,1.05500676E-1,1.1655142E-1,1.4496377E-1,-8.0946904E-1,3.91163E-1,-2.4140543E-1,2.8842825E-1,-2.0522285E1,-3.5081825E0,-4.2788306E-1,2.7649525E-1,6.514324E-1,3.6371204E-1,-4.934779E-1,-2.7019915E-1,2.5776625E1,4.1076395E-1,-1.07903595E1,1.229145E1,-1.7729353E1,-3.8664345E1,-3.0407179E1,-8.564562E0,-3.5049156E1,-2.7202448E1,2.2231272E-1,-2.0179373E1,1.0107052E1,-1.2189235E1,-1.0465897E1,-2.1082842E1,-3.6683945E1,-1.453861E1,2.1161236E1,-4.2937555E0,-8.238767E0,-2.5474054E1,-1.907089E1,-3.0164387E0,4.844258E0,-7.3511095E0,9.860354E0,-9.2540157E-1,1.166565E1,-8.623506E0,1.5971222E1,2.937681E1,-9.415105E-1,1.7430151E1,3.8148304E1,2.231402E1,1.2550561E1,2.7011156E1,3.241155E1,6.193314E1],"split_indices":[8,8,9,8,6,77,8,28,0,9,0,5,0,19,3,65,0,13,14,14,11,9,0,2,83,21,0,0,6,9,40,2,4,10,0,65,9,0,12,80,0,8,40,79,15,79,0,68,38,58,0,78,0,0,18,9,21,89,6,6,35,87,58,31,0,33,9,0,0,40,0,0,0,25,0,95,59,65,34,0,16,0,0,0,91,0,61,29,0,0,15,0,54,79,27,2,88,0,0,14,7,0,0,70,0,87,69,0,0,0,0,69,34,0,0,0,0,21,0,73,0,24,0,55,0,0,90,83,0,38,0,0,54,0,0,73,0,0,0,6,94,90,0,0,0,0,0,0,0,1,0,0,0,53,96,0,0,26,49,30,51,7,33,69,70,0,0,2,55,10,91,56,70,0,20,0,0,0,0,0,0,0,0,0,0,0,0,0,0,0,0,0,0,0,0,0,0,0,0,0,0,0,0,0,0,0,0,0,0,0,0,0,0],"split_type":[0,0,0,0,0,0,0,0,0,0,0,0,0,0,0,0,0,0,0,0,0,0,0,0,0,0,0,0,0,0,0,0,0,0,0,0,0,0,0,0,0,0,0,0,0,0,0,0,0,0,0,0,0,0,0,0,0,0,0,0,0,0,0,0,0,0,0,0,0,0,0,0,0,0,0,0,0,0,0,0,0,0,0,0,0,0,0,0,0,0,0,0,0,0,0,0,0,0,0,0,0,0,0,0,0,0,0,0,0,0,0,0,0,0,0,0,0,0,0,0,0,0,0,0,0,0,0,0,0,0,0,0,0,0,0,0,0,0,0,0,0,0,0,0,0,0,0,0,0,0,0,0,0,0,0,0,0,0,0,0,0,0,0,0,0,0,0,0,0,0,0,0,0,0,0,0,0,0,0,0,0,0,0,0,0,0,0,0,0,0,0,0,0,0,0,0,0,0,0,0,0,0,0,0,0,0,0,0,0,0,0,0,0],"sum_hessian":[2.173E3,1.654E3,5.19E2,7.04E2,9.5E2,2.63E2,2.56E2,8.5E1,6.19E2,9.39E2,1.1E1,2.52E2,1.1E1,1.79E2,7.7E1,7E1,1.5E1,3.97E2,2.22E2,2.91E2,6.48E2,2.41E2,1.1E1,4.6E1,1.33E2,6.6E1,1.1E1,1.7E1,5.3E1,3.32E2,6.5E1,3.6E1,1.86E2,2.78E2,1.3E1,1.45E2,5.03E2,1E1,2.31E2,3.2E1,1.4E1,1.09E2,2.4E1,4.3E1,2.3E1,4.1E1,1.2E1,1.24E2,2.08E2,5E1,1.5E1,2.5E1,1.1E1,1E1,1.76E2,1.43E2,1.35E2,1.01E2,4.4E1,2.82E2,2.21E2,2E1,2.11E2,2.1E1,1.1E1,4.9E1,6E1,1.4E1,1E1,3.3E1,1E1,1.3E1,1E1,3.1E1,1E1,8.2E1,4.2E1,2.6E1,1.82E2,1E1,4E1,1.1E1,1.4E1,1.1E1,1.65E2,1.1E1,1.32E2,1.25E2,1E1,1E1,9.1E1,1.2E1,3.2E1,2.57E2,2.5E1,1.88E2,3.3E1,1E1,1E1,1.71E2,4E1,1.1E1,1E1,3.9E1,1E1,3.1E1,2.9E1,1.4E1,1.9E1,2.1E1,1E1,5.3E1,2.9E1,1.4E1,2.8E1,1.2E1,1.4E1,1.71E2,1.1E1,2.8E1,1.2E1,1.52E2,1.3E1,1.2E2,1.2E1,1E1,1.15E2,8.1E1,1E1,2.2E1,1E1,1.6E1,2.41E2,1E1,1.5E1,1.75E2,1.3E1,1.7E1,1.6E1,1.35E2,3.6E1,2.1E1,1.9E1,2.5E1,1.4E1,2.1E1,1E1,1.9E1,1E1,3.5E1,1.8E1,1.1E1,1.8E1,2.3E1,1.48E2,1.7E1,1.1E1,9.9E1,5.3E1,9.9E1,2.1E1,2.8E1,8.7E1,3E1,5.1E1,1.2E1,1E1,1.87E2,5.4E1,1.07E2,6.8E1,4.8E1,8.7E1,1.6E1,2E1,1.1E1,1E1,1.2E1,2.3E1,1.1E1,1.2E1,8.2E1,6.6E1,2.7E1,7.2E1,2.6E1,2.7E1,7.2E1,2.7E1,1.1E1,1E1,1E1,1.8E1,6.2E1,2.5E1,2E1,1E1,3.4E1,1.7E1,1.19E2,6.8E1,1.1E1,4.3E1,8E1,2.7E1,3.5E1,3.3E1,2.7E1,2.1E1,3.9E1,4.8E1,1E1,1E1],"tree_param":{"num_deleted":"0","num_feature":"98","num_nodes":"213","size_leaf_vector":"1"}},{"base_weights":[2.4119897E-1,-1.1910314E3,3.7916948E3,-2.8115122E3,1.1523893E1,2.0154103E3,5.601607E3,-6.22683E3,-2.33324E3,1.2244171E2,-8.677999E1,2.2923708E3,-3.9917927E1,4.224035E3,8.708803E3,-4.808105E3,-1.2133248E2,-2.938153E3,-1.2431562E3,-8.839649E2,5.750585E2,2.0545464E3,6.897464E1,2.463831E3,4.809898E3,7.358449E3,1.5522542E2,2.6813293E0,-6.411145E3,-3.1536333E3,-1.4437338E3,-3.5525186E3,-7.795756E2,-1.0626653E3,2.7404202E1,-3.7879736E2,8.5023285E2,-2.5482029E1,2.2639246E3,3.4175403E3,2.0141563E0,4.3366533E3,6.6997773E3,5.351983E3,9.654691E3,-5.361286E3,-9.309832E1,-3.8582632E3,-2.6755735E3,-2.1387478E3,5.9550023E0,-1.7552981E3,-7.150453E1,3.279076E1,-1.0274039E3,-1.7019329E3,-3.7798016E2,-1.2008394E3,2.0868361E2,5.026295E2,1.7073845E3,-2.4186841E2,2.501461E3,4.2177896E3,1.6656214E1,3.3221875E3,5.0970903E3,8.377096E1,3.8034542E1,6.850271E3,1.53483515E1,7.3155945E1,1.08076675E2,-6.161411E3,-2.5462597E1,-2.9495916E3,-4.373395E3,-1.4887789E3,-2.8425388E3,-9.410631E0,-2.5756572E3,-3.7741524E1,-2.3194744E-1,1.990691E1,-1.2393903E3,-4.5379673E1,-1.4332535E3,-6.32603E2,2.572971E1,-5.2034125E2,-3.4482018E1,2.3713545E1,-1.4012617E2,9.7596387E2,1.3175421E1,-1.1736372E2,2.0523564E3,-1.6233227E1,1.161574E1,2.7989648E3,1.1923845E3,3.0678173E1,4.9204483E1,3.832779E3,1.1634737E1,3.9163545E3,6.1866387E3,8.5880264E1,4.887532E1,-6.7646255E1,-4.394853E1,-3.4606724E3,-1.663734E1,-2.587278E1,-4.714303E3,-9.767997E-1,-2.256185E1,-2.9406882E3,-1.0405018E1,-3.0314022E1,-1.7153803E1,-9.93559E2,-3.8374462E1,-1.6561708E3,-1.654967E2,2.0269306E1,-8.7934674E2,3.7011673E2,-1.5895242E3,-7.3799304E2,8.8979297E2,7.5244104E2,2.5775425E3,2.7333994E2,-1.8440521E3,1.507619E1,-1.3857528E1,1.7385443E3,3.565871E1,2.464547E3,3.9525283E3,2.5815552E1,2.4159912E1,4.608047E1,2.2334616E1,4.5421337E1,2.3087637E1,6.853192E1,4.4123013E1,-2.4219234E1,-4.2225124E1,-3.229151E1,-5.0876357E3,-2.3708828E3,-3.2002402E3,-2.3568823E2,-1.5214498E3,-1.3788182E3,-3.376285E1,-1.1964361E1,8.804879E0,5.167207E2,-1.3294218E3,-4.2446947E0,1.3987219E1,-2.2790632E1,-8.249863E0,4.3223433E0,-1.1400753E3,1.8262688E1,-4.3570635E-1,8.9711383E2,-1.3150768E1,3.8450726E1,1.2008446E1,1.2599487E3,-2.0031E1,-3.2592213E1,-1.3258988E0,1.9519373E3,2.4255087E0,3.1511736E3,2.0542148E3,2.5534021E1,4.8969385E3,-1.0691449E1,1.2179709E1,-5.3984516E1,-3.3536026E1,-1.056129E1,-2.6561203E1,-3.75434E1,-2.8592094E1,5.0296836E0,-1.7721264E1,-8.5576515E0,-2.5430752E1,-1.5646512E1,-2.3384383E0,2.0968859E1,-4.2530775E0,-8.157687E0,-2.522911E1,-1.8111782E1,-7.978606E-1,1.3202922E0,1.1977248E1,7.6599646E0,2.18402E1,-4.2862287E0,7.406057E0,8.625722E0,2.1583094E1,3.778045E1,2.2101023E1,1.2428193E1,2.6746557E1,3.2116898E1,6.1370106E1],"categories":[],"categories_nodes":[],"categories_segments":[],"categories_sizes":[],"default_left":[0,0,0,0,0,0,0,0,0,0,0,0,0,0,0,0,0,0,0,0,0,0,0,0,0,0,0,0,0,0,0,0,0,0,0,0,0,0,0,0,0,0,0,0,0,0,0,0,0,0,0,0,0,0,0,0,0,0,0,0,0,0,0,0,0,0,0,0,0,0,0,0,0,0,0,0,0,0,0,0,0,0,0,0,0,0,0,0,0,0,0,0,0,0,0,0,0,0,0,0,0,0,0,0,0,0,0,0,0,0,0,0,0,0,0,0,0,0,0,0,0,0,0,0,0,0,0,0,0,0,0,0,0,0,0,0,0,0,0,0,0,0,0,0,0,0,0,0,0,0,0,0,0,0,0,0,0,0,0,0,0,0,0,0,0,0,0,0,0,0,0,0,0,0,0,0,0,0,0,0,0,0,0,0,0,0,0,0,0,0,0,0,0,0,0,0,0,0,0,0,0,0,0,0,0,0,0,0,0,0,0,0,0,0,0,0,0,0,0],"id":4,"left_children":[1,3,5,7,9,11,13,15,17,19,-1,21,-1,23,25,27,-1,29,31,33,35,37,-1,39,41,43,-1,-1,45,47,49,51,53,55,-1,57,59,-1,61,63,-1,65,67,69,71,73,-1,75,77,79,-1,81,-1,-1,83,85,87,89,91,93,95,97,99,101,-1,103,105,-1,-1,107,-1,-1,-1,109,-1,111,113,115,117,-1,119,-1,-1,-1,121,-1,123,125,-1,127,-1,-1,129,131,133,135,137,-1,-1,139,141,-1,-1,143,-1,145,147,-1,-1,-1,-1,149,-1,-1,151,-1,-1,153,-1,-1,-1,155,-1,157,159,-1,161,163,165,167,169,171,173,175,177,-1,-1,179,-1,181,183,185,-1,-1,-1,-1,-1,-1,-1,-1,-1,-1,187,189,191,193,195,197,-1,-1,-1,199,201,-1,-1,-1,-1,-1,203,-1,-1,205,-1,-1,-1,207,209,-1,-1,211,-1,213,215,-1,217,-1,-1,-1,-1,-1,-1,-1,-1,-1,-1,-1,-1,-1,-1,-1,-1,-1,-1,-1,-1,-1,-1,-1,-1,-1,-1,-1,-1,-1,-1,-1,-1,-1,-1],"loss_changes":[9.823724E9,3.2251604E9,1.6604687E9,1.1370552E9,9.1765824E8,4.4838298E8,1.06327194E9,6.623063E8,4.0517914E8,4.2869386E8,0E0,2.6291533E8,0E0,1.7377203E8,6.034524E8,5.7947546E8,0E0,1.2361011E8,2.359689E8,1.9203451E8,1.7066944E8,2.3898784E8,0E0,1.0072291E8,9.079168E7,2.5701965E8,0E0,0E0,1.1442074E8,1.0656563E8,7.497301E7,2.2670128E8,1.914626E8,1.2147414E8,0E0,7.075897E7,1.4930803E8,0E0,1.3869542E8,3.923981E7,0E0,6.792448E7,8.95895E7,2.068151E8,1.842944E6,7.891123E7,0E0,5.169613E7,3.738035E7,1.7984064E7,0E0,9.083093E7,0E0,0E0,1.1571098E8,1.032216E8,1.038153E8,9.149463E7,6.520731E7,8.3390296E7,9.151648E7,4.2600236E7,7.922701E7,2.681792E6,0E0,5.065171E7,5.424563E7,0E0,0E0,5.011635E7,0E0,0E0,0E0,4.370048E6,0E0,2.9072768E7,4.016832E7,2.9670664E7,2.9307392E7,0E0,5.777856E6,0E0,0E0,0E0,1.0220869E8,0E0,3.731235E7,8.4466504E7,0E0,4.6287304E7,0E0,0E0,4.683825E7,6.357259E7,8.651093E7,5.1555836E7,5.174563E7,0E0,0E0,5.6611584E7,5.846191E7,0E0,0E0,3.930413E7,0E0,2.1705216E7,5.242368E6,0E0,0E0,0E0,0E0,1.905376E7,0E0,0E0,2.2937472E7,0E0,0E0,1.7998208E7,0E0,0E0,0E0,6.085259E7,0E0,4.925453E7,2.3698732E7,0E0,7.3573816E7,2.2661236E7,9.717736E6,2.3078114E7,2.4553602E7,4.963617E7,3.37728E7,4.5467684E7,5.2852064E7,0E0,0E0,3.2407712E7,0E0,3.1844096E7,3.638605E7,3.002017E7,0E0,0E0,0E0,0E0,0E0,0E0,0E0,0E0,0E0,0E0,1.1538816E7,1.8945792E7,1.1185536E7,7.352494E7,5.9030944E7,2.069872E7,0E0,0E0,0E0,4.4060084E7,5.1889376E7,0E0,0E0,0E0,0E0,0E0,2.5471772E7,0E0,0E0,3.4800776E7,0E0,0E0,0E0,1.4759152E7,3.8233816E7,0E0,0E0,1.8371616E7,0E0,2.0556704E7,4.097709E7,0E0,2.4176288E7,0E0,0E0,0E0,0E0,0E0,0E0,0E0,0E0,0E0,0E0,0E0,0E0,0E0,0E0,0E0,0E0,0E0,0E0,0E0,0E0,0E0,0E0,0E0,0E0,0E0,0E0,0E0,0E0,0E0,0E0,0E0,0E0,0E0,0E0],"parents":[2147483647,0,0,1,1,2,2,3,3,4,4,5,5,6,6,7,7,8,8,9,9,11,11,13,13,14,14,15,15,17,17,18,18,19,19,20,20,21,21,23,23,24,24,25,25,28,28,29,29,30,30,31,31,32,32,33,33,35,35,36,36,38,38,39,39,41,41,42,42,43,43,44,44,45,45,47,47,48,48,49,49,51,51,54,54,55,55,56,56,57,57,58,58,59,59,60,60,61,61,62,62,63,63,65,65,66,66,69,69,73,73,75,75,76,76,77,77,78,78,80,80,84,84,86,86,87,87,89,89,92,92,93,93,94,94,95,95,96,96,99,99,100,100,103,103,105,105,106,106,111,111,114,114,117,117,121,121,123,123,124,124,126,126,127,127,128,128,129,129,130,130,131,131,132,132,133,133,134,134,137,137,139,139,140,140,141,141,152,152,153,153,154,154,155,155,156,156,157,157,161,161,162,162,168,168,171,171,175,175,176,176,179,179,181,181,182,182,184,184],"right_children":[2,4,6,8,10,12,14,16,18,20,-1,22,-1,24,26,28,-1,30,32,34,36,38,-1,40,42,44,-1,-1,46,48,50,52,54,56,-1,58,60,-1,62,64,-1,66,68,70,72,74,-1,76,78,80,-1,82,-1,-1,84,86,88,90,92,94,96,98,100,102,-1,104,106,-1,-1,108,-1,-1,-1,110,-1,112,114,116,118,-1,120,-1,-1,-1,122,-1,124,126,-1,128,-1,-1,130,132,134,136,138,-1,-1,140,142,-1,-1,144,-1,146,148,-1,-1,-1,-1,150,-1,-1,152,-1,-1,154,-1,-1,-1,156,-1,158,160,-1,162,164,166,168,170,172,174,176,178,-1,-1,180,-1,182,184,186,-1,-1,-1,-1,-1,-1,-1,-1,-1,-1,188,190,192,194,196,198,-1,-1,-1,200,202,-1,-1,-1,-1,-1,204,-1,-1,206,-1,-1,-1,208,210,-1,-1,212,-1,214,216,-1,218,-1,-1,-1,-1,-1,-1,-1,-1,-1,-1,-1,-1,-1,-1,-1,-1,-1,-1,-1,-1,-1,-1,-1,-1,-1,-1,-1,-1,-1,-1,-1,-1,-1,-1],"split_conditions":[5.1798564E-1,-3.666639E-1,7.319449E-1,-1.4086301E0,1.8733667E0,1.2136372E0,1.524003E0,1.005205E0,2.4390593E-1,-2.0098889E-1,-8.677999E1,5.511167E-1,-3.9917927E1,3.732963E-2,2.0178554E0,-1.0173654E-1,-1.2133248E2,7.29876E-2,-8.029983E-1,1.1164082E0,-2.270235E-1,-6.9309735E-1,6.897464E1,7.9361457E-1,7.760653E-2,7.785101E-1,1.5522542E2,2.6813293E0,1.6966814E0,-7.5869304E-1,4.1494566E-1,2.0843036E0,-6.3239074E-1,-3.000888E-1,2.7404202E1,-1.9705485E-1,4.6196744E-1,-2.5482029E1,-4.4624928E-1,-4.4242587E-2,2.0141563E0,9.4886875E-1,-4.1831207E-2,-5.365902E-2,-7.404521E-1,8.0044895E-1,-9.309832E1,1.6787586E-1,-8.980814E-1,-6.899773E-1,5.9550023E0,-4.8732886E-1,-7.150453E1,3.279076E1,-1.0815492E0,-1.1452416E0,1.2189438E0,3.766896E-2,-8.5085315E-1,-5.7493348E-2,-7.767484E-1,9.677965E-2,3.0973744E-1,-4.5204195E-1,1.6656214E1,7.4932194E-1,1.1798395E0,8.377096E1,3.8034542E1,-4.655733E-1,1.53483515E1,7.3155945E1,1.08076675E2,8.448426E-2,-2.5462597E1,1.7196755E-1,-8.2181066E-1,-4.9153846E-2,8.670158E-1,-9.410631E0,1.5616499E-1,-3.7741524E1,-2.3194744E-1,1.990691E1,1.2631063E0,-4.5379673E1,5.714567E-1,-1.2464051E0,2.572971E1,-1.7461398E-1,-3.4482018E1,2.3713545E1,1.3145122E-1,8.1921244E-1,1.1235673E0,-2.9755548E-1,1.1121126E0,-1.6233227E1,1.161574E1,7.305098E-1,-4.93021E-1,3.0678173E1,4.9204483E1,-2.5910974E-1,1.1634737E1,-2.6052183E-1,-5.067078E-1,8.5880264E1,4.887532E1,-6.7646255E1,-4.394853E1,2.4008186E-1,-1.663734E1,-2.587278E1,-8.510162E-1,-9.767997E-1,-2.256185E1,-1.317855E-1,-1.0405018E1,-3.0314022E1,-1.7153803E1,-7.740227E-2,-3.8374462E1,4.0675777E-1,-2.4273752E-1,2.0269306E1,-5.284298E-1,1.6567917E-1,6.5441763E-1,-5.769111E-1,-2.5580494E-2,3.8668436E-1,-4.287384E-1,-4.9817783E-1,-1.5647832E-1,1.507619E1,-1.3857528E1,4.9133447E-1,3.565871E1,-7.6355165E-1,-2.4030834E-1,-2.5701683E-2,2.4159912E1,4.608047E1,2.2334616E1,4.5421337E1,2.3087637E1,6.853192E1,4.4123013E1,-2.4219234E1,-4.2225124E1,-3.229151E1,2.3549762E-1,-9.676134E-1,-7.84325E-1,5.55843E-1,-1.0669433E-1,4.346613E-1,-3.376285E1,-1.1964361E1,8.804879E0,-8.0946904E-1,3.91163E-1,-4.2446947E0,1.3987219E1,-2.2790632E1,-8.249863E0,4.3223433E0,9.148453E-2,1.8262688E1,-4.3570635E-1,-6.9817877E-1,-1.3150768E1,3.8450726E1,1.2008446E1,4.1659665E-1,3.7265462E-1,-3.2592213E1,-1.3258988E0,-7.9789484E-1,2.4255087E0,-4.934779E-1,-2.7019915E-1,2.5534021E1,4.1076395E-1,-1.0691449E1,1.2179709E1,-5.3984516E1,-3.3536026E1,-1.056129E1,-2.6561203E1,-3.75434E1,-2.8592094E1,5.0296836E0,-1.7721264E1,-8.5576515E0,-2.5430752E1,-1.5646512E1,-2.3384383E0,2.0968859E1,-4.2530775E0,-8.157687E0,-2.522911E1,-1.8111782E1,-7.978606E-1,1.3202922E0,1.1977248E1,7.6599646E0,2.18402E1,-4.2862287E0,7.406057E0,8.625722E0,2.1583094E1,3.778045E1,2.2101023E1,1.2428193E1,2.6746557E1,3.2116898E1,6.1370106E1],"split_indices":[8,8,9,8,6,77,8,28,0,9,0,5,0,19,3,65,0,13,14,14,11,9,0,2,83,26,0,0,6,9,40,2,4,10,0,38,9,0,12,80,0,8,40,79,62,79,0,69,38,55,0,78,0,0,18,9,21,27,89,73,96,87,58,70,0,33,9,0,0,40,0,0,0,25,0,79,22,72,34,0,16,0,0,0,91,0,54,29,0,63,0,0,8,15,6,71,1,0,0,14,7,0,0,70,0,87,69,0,0,0,0,2,0,0,2,0,0,66,0,0,0,97,0,55,19,0,90,77,88,2,43,64,68,25,93,0,0,65,0,6,94,90,0,0,0,0,0,0,0,0,0,0,22,21,0,56,19,51,0,0,0,7,33,0,0,0,0,0,14,0,0,71,0,0,0,52,15,0,0,73,0,56,70,0,20,0,0,0,0,0,0,0,0,0,0,0,0,0,0,0,0,0,0,0,0,0,0,0,0,0,0,0,0,0,0,0,0,0,0],"split_type":[0,0,0,0,0,0,0,0,0,0,0,0,0,0,0,0,0,0,0,0,0,0,0,0,0,0,0,0,0,0,0,0,0,0,0,0,0,0,0,0,0,0,0,0,0,0,0,0,0,0,0,0,0,0,0,0,0,0,0,0,0,0,0,0,0,0,0,0,0,0,0,0,0,0,0,0,0,0,0,0,0,0,0,0,0,0,0,0,0,0,0,0,0,0,0,0,0,0,0,0,0,0,0,0,0,0,0,0,0,0,0,0,0,0,0,0,0,0,0,0,0,0,0,0,0,0,0,0,0,0,0,0,0,0,0,0,0,0,0,0,0,0,0,0,0,0,0,0,0,0,0,0,0,0,0,0,0,0,0,0,0,0,0,0,0,0,0,0,0,0,0,0,0,0,0,0,0,0,0,0,0,0,0,0,0,0,0,0,0,0,0,0,0,0,0,0,0,0,0,0,0,0,0,0,0,0,0,0,0,0,0,0,0,0,0,0,0,0,0],"sum_hessian":[2.173E3,1.654E3,5.19E2,7.04E2,9.5E2,2.63E2,2.56E2,8.5E1,6.19E2,9.39E2,1.1E1,2.52E2,1.1E1,1.79E2,7.7E1,7E1,1.5E1,3.97E2,2.22E2,2.91E2,6.48E2,2.41E2,1.1E1,4.6E1,1.33E2,6.6E1,1.1E1,1.7E1,5.3E1,3.46E2,5.1E1,3.6E1,1.86E2,2.78E2,1.3E1,1.45E2,5.03E2,1E1,2.31E2,3.2E1,1.4E1,1.09E2,2.4E1,3.7E1,2.9E1,4.1E1,1.2E1,1.37E2,2.09E2,3.8E1,1.3E1,2.5E1,1.1E1,1E1,1.76E2,1.43E2,1.35E2,6E1,8.5E1,3.59E2,1.44E2,2E1,2.11E2,2.1E1,1.1E1,4.9E1,6E1,1.4E1,1E1,2.6E1,1.1E1,1.2E1,1.7E1,3.1E1,1E1,5.2E1,8.5E1,2.7E1,1.82E2,1.1E1,2.7E1,1.1E1,1.4E1,1.1E1,1.65E2,1.1E1,1.32E2,1.25E2,1E1,4.7E1,1.3E1,1.1E1,7.4E1,1.82E2,1.77E2,2.3E1,1.21E2,1E1,1E1,1.71E2,4E1,1E1,1.1E1,3.9E1,1E1,3.1E1,2.9E1,1.2E1,1.4E1,2.1E1,1E1,3.6E1,1.6E1,1.5E1,7E1,1E1,1.7E1,1.72E2,1E1,1.6E1,1.1E1,1.52E2,1.3E1,1.12E2,2E1,1E1,1.15E2,2.6E1,2.1E1,4.7E1,2.7E1,1.61E2,2.1E1,1.56E2,2.1E1,1E1,1.3E1,1.02E2,1.9E1,1.35E2,3.6E1,2.1E1,1.9E1,2.5E1,1.4E1,2.1E1,1E1,1.9E1,1E1,1.7E1,1.9E1,1.6E1,5.4E1,5.7E1,1.15E2,6.3E1,8.9E1,9.8E1,1.4E1,1E1,1E1,2.8E1,8.7E1,1.5E1,1.1E1,1E1,1.1E1,1.2E1,3.5E1,1.3E1,1.4E1,1.51E2,1E1,1E1,1.1E1,3.5E1,1.21E2,1.1E1,1E1,8.9E1,1.3E1,4.8E1,8.7E1,1.6E1,2E1,1.1E1,1E1,4.4E1,1E1,1.1E1,4.6E1,4E1,7.5E1,4.3E1,2E1,5.5E1,3.4E1,8.4E1,1.4E1,1E1,1.8E1,6.2E1,2.5E1,2.1E1,1.4E1,4.3E1,1.08E2,2.4E1,1.1E1,7.9E1,4.2E1,1.5E1,7.4E1,2.7E1,2.1E1,3.9E1,4.8E1,1E1,1E1],"tree_param":{"num_deleted":"0","num_feature":"98","num_nodes":"219","size_leaf_vector":"1"}},{"base_weights":[3.5973337E-1,-1.1796938E3,3.7561062E3,-2.7846843E3,1.1366233E1,1.9961754E3,5.549358E3,-6.1686177E3,-2.3108086E3,1.2126669E2,-8.59845E1,2.2705642E3,-3.955201E1,4.18447E3,8.627952E3,-4.7632275E3,-1.2019498E2,-2.9098188E3,-1.2313607E3,-8.752744E2,5.694466E2,2.0348838E3,6.834237E1,2.4412896E3,4.764657E3,7.28981E3,1.538025E2,2.6560051E0,-6.351296E3,-3.1563896E3,-1.6216702E3,-1.4695394E3,3.0790764E1,-1.052293E3,2.7149733E1,-3.7520682E2,8.419663E2,-2.5250374E1,2.242316E3,3.3862903E3,1.9953575E0,4.273063E3,6.554566E3,5.615085E3,1.0056397E4,-5.3109365E3,-9.2238945E1,-3.8763933E3,-2.7106628E3,-2.186703E3,2.8072565E0,-1.2099373E3,-5.695413E1,-1.68561E3,-3.739847E2,8.680668E1,-1.4140995E3,3.6139856E2,1.4507893E3,3.4877734E2,2.5545671E3,4.1792427E3,1.650353E1,1.0053686E1,4.596242E3,3.7480286E1,8.5499275E1,6.795223E3,1.456924E1,1.15606186E2,7.2277145E1,-6.1032847E3,-2.523112E1,-3.2952659E3,-4.907956E3,-9.473886E0,-2.8132615E3,-8.428725E0,-2.4939084E3,-8.8817065E2,-4.2453773E1,-4.496369E1,-1.4193339E3,-1.1824106E3,5.5396967E2,2.5517956E1,-2.0886383E2,8.123687E0,-2.2483416E3,-5.200828E2,5.715299E2,1.290406E3,3.741455E1,-1.0368195E1,1.63802E1,3.3167822E3,2.0668018E3,4.8761665E1,3.039031E1,6.0719643E1,4.188305E3,8.482775E1,5.1897972E1,-6.700054E1,-4.3549E1,-1.4576709E1,-3.527023E3,-3.4548023E1,-5.490347E1,-1.9041279E3,-2.9651768E3,-2.8512131E3,-1.5050049E1,1.5427696E1,-1.0831411E3,-1.5848074E3,2.300226E0,8.554042E0,-1.5194512E3,2.8832455E1,-2.8252325E2,-4.738697E2,1.785622E1,-1.30653E3,-4.013189E1,9.178406E1,-2.9758942E1,8.164669E2,-4.48134E2,1.5291887E3,-7.071062E2,2.8115884E3,4.9047146E1,4.521967E2,2.3729546E3,4.4529414E3,2.6226658E1,-2.9337175E3,-4.548821E3,-3.1509721E0,-2.6458047E3,-3.0507085E3,-1.4748442E1,-3.3125484E1,-1.921609E1,-1.2658567E3,1.2208741E1,-1.3276973E3,-2.6814534E3,-4.8608948E2,-2.1429023E3,-2.2479345E1,5.928794E2,-1.377134E3,7.372769E1,-2.0176876E1,-3.472955E0,1.2892984E1,-3.827454E2,6.500209E2,2.8030561E1,-1.2727184E3,5.548538E2,1.3105558E3,4.1372562E1,-2.015681E1,4.5454216E0,3.1525813E3,1.1849011E1,1.531393E1,-6.6810827E0,3.0738967E3,1.8679939E3,2.9355164E1,4.7638863E1,-3.498152E1,-1.4211223E1,-5.375654E1,-3.205114E1,-3.704394E1,-1.3466871E1,-1.8477781E1,-3.1835802E1,-8.277427E0,-1.9489601E1,-3.665198E0,-1.5486337E1,-3.704403E1,-1.5202949E1,4.2426763E0,-1.6832956E1,-2.8274302E1,-1.090723E1,1.3493162E1,-9.063644E0,-2.3813477E1,-7.8553953E0,5.160131E0,-6.5972967E0,1.6456251E0,-1.4923214E1,1.26092415E1,9.909028E-2,1.0262276E-1,-2.2815075E1,-3.0602374E0,1.36529E1,1.797719E1,7.420588E0,4.0137806E1,2.6134003E1,3.5906773E1,1.2910899E1,2.3880476E1,9.8199005E0],"categories":[],"categories_nodes":[],"categories_segments":[],"categories_sizes":[],"default_left":[0,0,0,0,0,0,0,0,0,0,0,0,0,0,0,0,0,0,0,0,0,0,0,0,0,0,0,0,0,0,0,0,0,0,0,0,0,0,0,0,0,0,0,0,0,0,0,0,0,0,0,0,0,0,0,0,0,0,0,0,0,0,0,0,0,0,0,0,0,0,0,0,0,0,0,0,0,0,0,0,0,0,0,0,0,0,0,0,0,0,0,0,0,0,0,0,0,0,0,0,0,0,0,0,0,0,0,0,0,0,0,0,0,0,0,0,0,0,0,0,0,0,0,0,0,0,0,0,0,0,0,0,0,0,0,0,0,0,0,0,0,0,0,0,0,0,0,0,0,0,0,0,0,0,0,0,0,0,0,0,0,0,0,0,0,0,0,0,0,0,0,0,0,0,0,0,0,0,0,0,0,0,0,0,0,0,0,0,0,0,0,0,0,0,0,0,0,0,0,0,0,0,0,0,0,0,0,0,0,0,0,0,0,0,0],"id":5,"left_children":[1,3,5,7,9,11,13,15,17,19,-1,21,-1,23,25,27,-1,29,31,33,35,37,-1,39,41,43,-1,-1,45,47,49,51,-1,53,-1,55,57,-1,59,61,-1,63,65,67,69,71,-1,73,75,77,-1,79,-1,81,83,85,87,89,91,93,95,97,-1,-1,99,-1,-1,101,-1,-1,-1,103,-1,105,107,-1,109,-1,111,113,-1,-1,115,117,119,-1,121,-1,123,125,127,129,-1,-1,-1,131,133,-1,-1,-1,135,-1,-1,-1,-1,-1,137,-1,-1,139,141,143,-1,-1,145,147,-1,-1,149,-1,151,153,-1,155,-1,157,-1,159,161,163,165,167,-1,169,171,173,-1,175,177,-1,179,181,-1,-1,-1,183,-1,185,187,189,191,-1,193,195,197,-1,-1,-1,199,201,-1,203,205,207,-1,-1,-1,209,-1,-1,-1,211,213,-1,-1,-1,-1,-1,-1,-1,-1,-1,-1,-1,-1,-1,-1,-1,-1,-1,-1,-1,-1,-1,-1,-1,-1,-1,-1,-1,-1,-1,-1,-1,-1,-1,-1,-1,-1,-1,-1,-1,-1,-1,-1],"loss_changes":[9.63956E9,3.1637962E9,1.6300421E9,1.1162578E9,9.009007E8,4.4009005E8,1.0437939E9,6.4990694E8,3.973092E8,4.2033034E8,0E0,2.5821184E8,0E0,1.7041485E8,5.926528E8,5.687016E8,0E0,1.2129408E8,2.3346877E8,1.8843485E8,1.6739237E8,2.3456352E8,0E0,9.889187E7,8.989978E7,2.5396173E8,0E0,0E0,1.1239322E8,9.636045E7,7.155829E7,2.2568256E8,0E0,1.1922355E8,0E0,7.020019E7,1.4693632E8,0E0,1.3628122E8,3.852781E7,0E0,1.0943258E8,1.191561E8,2.0601677E8,1.8562304E7,7.737562E7,0E0,5.876045E7,3.514483E7,1.89524E7,0E0,1.9254678E8,0E0,1.0139322E8,1.0267982E8,7.487309E7,8.541008E7,5.2716444E7,7.673136E7,6.243493E7,6.71296E7,2.663264E6,0E0,0E0,3.356493E7,0E0,0E0,4.809037E7,0E0,0E0,0E0,4.210304E6,0E0,3.0206592E7,1.742304E7,0E0,2.1561728E7,0E0,1.019584E7,8.840605E7,0E0,0E0,3.666357E7,5.1438056E7,1.2551364E8,0E0,4.94728E7,0E0,4.960773E7,8.291778E7,5.7559424E7,1.0076832E8,0E0,0E0,0E0,4.717824E7,6.0222144E7,0E0,0E0,0E0,2.1467392E7,0E0,0E0,0E0,0E0,0E0,3.0910464E7,0E0,0E0,3.5701264E7,1.6788352E7,6.071488E6,0E0,0E0,7.311195E7,3.0556832E7,0E0,0E0,3.954613E7,0E0,8.391802E7,4.06608E7,0E0,1.4989108E7,0E0,2.606499E7,0E0,5.935003E7,3.7923336E7,1.0120707E8,3.58786E7,2.9545792E7,0E0,2.6412744E7,3.1068608E7,1.7628416E7,0E0,3.6862976E7,1.0545952E7,0E0,2.3891216E7,1.9211648E7,0E0,0E0,0E0,4.5672544E7,0E0,2.066832E7,2.0499968E7,2.7961298E7,2.5005664E7,0E0,3.9781804E7,1.654606E7,1.7209102E7,0E0,0E0,0E0,2.0285812E7,6.72475E7,0E0,3.237984E7,1.5069226E7,4.6855424E7,0E0,0E0,0E0,1.2263168E7,0E0,0E0,0E0,3.405952E7,2.668344E7,0E0,0E0,0E0,0E0,0E0,0E0,0E0,0E0,0E0,0E0,0E0,0E0,0E0,0E0,0E0,0E0,0E0,0E0,0E0,0E0,0E0,0E0,0E0,0E0,0E0,0E0,0E0,0E0,0E0,0E0,0E0,0E0,0E0,0E0,0E0,0E0,0E0,0E0,0E0,0E0,0E0,0E0],"parents":[2147483647,0,0,1,1,2,2,3,3,4,4,5,5,6,6,7,7,8,8,9,9,11,11,13,13,14,14,15,15,17,17,18,18,19,19,20,20,21,21,23,23,24,24,25,25,28,28,29,29,30,30,31,31,33,33,35,35,36,36,38,38,39,39,41,41,42,42,43,43,44,44,45,45,47,47,48,48,49,49,51,51,53,53,54,54,55,55,56,56,57,57,58,58,59,59,60,60,61,61,64,64,67,67,71,71,73,73,74,74,76,76,78,78,79,79,82,82,83,83,84,84,86,86,88,88,89,89,90,90,91,91,95,95,96,96,100,100,106,106,109,109,110,110,111,111,114,114,115,115,118,118,120,120,121,121,123,123,125,125,127,127,128,128,129,129,130,130,131,131,133,133,134,134,135,135,137,137,138,138,140,140,141,141,145,145,147,147,148,148,149,149,150,150,152,152,153,153,154,154,158,158,159,159,161,161,162,162,163,163,167,167,171,171,172,172],"right_children":[2,4,6,8,10,12,14,16,18,20,-1,22,-1,24,26,28,-1,30,32,34,36,38,-1,40,42,44,-1,-1,46,48,50,52,-1,54,-1,56,58,-1,60,62,-1,64,66,68,70,72,-1,74,76,78,-1,80,-1,82,84,86,88,90,92,94,96,98,-1,-1,100,-1,-1,102,-1,-1,-1,104,-1,106,108,-1,110,-1,112,114,-1,-1,116,118,120,-1,122,-1,124,126,128,130,-1,-1,-1,132,134,-1,-1,-1,136,-1,-1,-1,-1,-1,138,-1,-1,140,142,144,-1,-1,146,148,-1,-1,150,-1,152,154,-1,156,-1,158,-1,160,162,164,166,168,-1,170,172,174,-1,176,178,-1,180,182,-1,-1,-1,184,-1,186,188,190,192,-1,194,196,198,-1,-1,-1,200,202,-1,204,206,208,-1,-1,-1,210,-1,-1,-1,212,214,-1,-1,-1,-1,-1,-1,-1,-1,-1,-1,-1,-1,-1,-1,-1,-1,-1,-1,-1,-1,-1,-1,-1,-1,-1,-1,-1,-1,-1,-1,-1,-1,-1,-1,-1,-1,-1,-1,-1,-1,-1,-1],"split_conditions":[5.1798564E-1,-3.666639E-1,7.319449E-1,-1.4086301E0,1.8733667E0,1.2136372E0,1.524003E0,1.005205E0,2.4390593E-1,-2.0098889E-1,-8.59845E1,5.511167E-1,-3.955201E1,3.732963E-2,2.0178554E0,-1.0173654E-1,-1.2019498E2,4.6979743E-3,9.206814E-1,1.1164082E0,-2.270235E-1,-6.9309735E-1,6.834237E1,7.9361457E-1,6.763128E-2,1.0437979E0,1.538025E2,2.6560051E0,1.6966814E0,-7.78505E-1,4.1494566E-1,1.7167389E0,3.0790764E1,-3.000888E-1,2.7149733E1,3.4587204E-1,3.038618E-1,-2.5250374E1,-1.9968897E-1,-4.4242587E-2,1.9953575E0,2.843383E-1,-6.21721E-1,-5.365902E-2,1.7313334E0,8.0044895E-1,-9.2238945E1,6.690794E-1,-9.566747E-1,-7.546967E-1,2.8072565E0,2.235993E0,-5.695413E1,-1.1452416E0,-8.894603E-2,-8.120522E-1,-7.8508055E-1,-2.7789992E-1,1.1789167E0,9.677965E-2,-4.2552575E-1,-1.5918063E-1,1.650353E1,1.0053686E1,-1.0402303E0,3.7480286E1,8.5499275E1,-4.655733E-1,1.456924E1,1.15606186E2,7.2277145E1,8.448426E-2,-2.523112E1,-8.510162E-1,2.4147518E-1,-9.473886E0,-9.676134E-1,-8.428725E0,2.4515726E-1,-1.1983222E0,-4.2453773E1,-4.496369E1,1.047817E0,-7.210878E-1,-3.531133E-1,2.5517956E1,3.833867E-1,8.123687E0,4.1226512E-1,2.3649082E-1,4.3570903E-1,1.0659215E0,3.741455E1,-1.0368195E1,1.63802E1,7.305098E-1,1.0968617E-2,4.8761665E1,3.039031E1,6.0719643E1,6.3537353E-1,8.482775E1,5.1897972E1,-6.700054E1,-4.3549E1,-1.4576709E1,3.2325152E-1,-3.4548023E1,-5.490347E1,-4.0829378E-1,8.818855E-1,1.8571447E-1,-1.5050049E1,1.5427696E1,1.2912223E0,4.0675777E-1,2.300226E0,8.554042E0,-6.639858E-2,2.8832455E1,-4.512924E-1,-1.3257323E-2,1.785622E1,-1.9705485E-1,-4.013189E1,-2.2908126E-1,-2.9758942E1,1.2553147E0,3.7265462E-1,1.5999626E0,-6.9860786E-1,-1.3270825E-1,4.9047146E1,3.119618E-2,-7.667767E-1,-9.8448867E-1,2.6226658E1,1.7196755E-1,-8.128463E-1,-3.1509721E0,4.3478462E-1,-8.980814E-1,-1.4748442E1,-3.3125484E1,-1.921609E1,1.3730695E0,1.2208741E1,-3.6851582E-1,-4.4427136E-1,5.2304953E-1,1.7353496E-1,-2.2479345E1,6.908738E-1,-2.539825E-1,2.6157996E-1,-2.0176876E1,-3.472955E0,1.2892984E1,6.1558627E-2,-5.077195E-1,2.8030561E1,2.1305774E-1,7.1099573E-1,-8.907735E-2,4.1372562E1,-2.015681E1,4.5454216E0,-1.5085483E-1,1.1849011E1,1.531393E1,-6.6810827E0,7.2553766E-1,4.1037846E-1,2.9355164E1,4.7638863E1,-3.498152E1,-1.4211223E1,-5.375654E1,-3.205114E1,-3.704394E1,-1.3466871E1,-1.8477781E1,-3.1835802E1,-8.277427E0,-1.9489601E1,-3.665198E0,-1.5486337E1,-3.704403E1,-1.5202949E1,4.2426763E0,-1.6832956E1,-2.8274302E1,-1.090723E1,1.3493162E1,-9.063644E0,-2.3813477E1,-7.8553953E0,5.160131E0,-6.5972967E0,1.6456251E0,-1.4923214E1,1.26092415E1,9.909028E-2,1.0262276E-1,-2.2815075E1,-3.0602374E0,1.36529E1,1.797719E1,7.420588E0,4.0137806E1,2.6134003E1,3.5906773E1,1.2910899E1,2.3880476E1,9.8199005E0],"split_indices":[8,8,9,8,6,77,8,28,0,9,0,5,0,19,3,65,0,13,9,14,11,9,0,2,78,21,0,0,6,9,40,27,0,10,0,65,9,0,12,80,0,11,0,79,15,79,0,68,54,58,0,2,0,9,8,89,6,13,97,87,59,31,0,0,74,0,0,40,0,0,0,25,0,2,59,0,21,0,16,8,0,0,61,16,94,0,15,0,54,17,54,35,0,0,0,14,9,0,0,0,45,0,0,0,0,0,69,0,0,85,29,73,0,0,36,55,0,0,75,0,77,83,0,38,0,91,0,36,15,2,87,58,0,68,1,65,0,79,11,0,87,38,0,0,0,1,0,93,29,42,95,0,93,21,71,0,0,0,62,2,0,69,47,73,0,0,0,92,0,0,0,33,18,0,0,0,0,0,0,0,0,0,0,0,0,0,0,0,0,0,0,0,0,0,0,0,0,0,0,0,0,0,0,0,0,0,0,0,0,0,0,0,0,0,0],"split_type":[0,0,0,0,0,0,0,0,0,0,0,0,0,0,0,0,0,0,0,0,0,0,0,0,0,0,0,0,0,0,0,0,0,0,0,0,0,0,0,0,0,0,0,0,0,0,0,0,0,0,0,0,0,0,0,0,0,0,0,0,0,0,0,0,0,0,0,0,0,0,0,0,0,0,0,0,0,0,0,0,0,0,0,0,0,0,0,0,0,0,0,0,0,0,0,0,0,0,0,0,0,0,0,0,0,0,0,0,0,0,0,0,0,0,0,0,0,0,0,0,0,0,0,0,0,0,0,0,0,0,0,0,0,0,0,0,0,0,0,0,0,0,0,0,0,0,0,0,0,0,0,0,0,0,0,0,0,0,0,0,0,0,0,0,0,0,0,0,0,0,0,0,0,0,0,0,0,0,0,0,0,0,0,0,0,0,0,0,0,0,0,0,0,0,0,0,0,0,0,0,0,0,0,0,0,0,0,0,0,0,0,0,0,0,0],"sum_hessian":[2.173E3,1.654E3,5.19E2,7.04E2,9.5E2,2.63E2,2.56E2,8.5E1,6.19E2,9.39E2,1.1E1,2.52E2,1.1E1,1.79E2,7.7E1,7E1,1.5E1,3.97E2,2.22E2,2.91E2,6.48E2,2.41E2,1.1E1,4.6E1,1.33E2,6.6E1,1.1E1,1.7E1,5.3E1,3.32E2,6.5E1,2.11E2,1.1E1,2.78E2,1.3E1,1.45E2,5.03E2,1E1,2.31E2,3.2E1,1.4E1,1.07E2,2.6E1,4.3E1,2.3E1,4.1E1,1.2E1,1.24E2,2.08E2,5E1,1.5E1,2E2,1.1E1,1.43E2,1.35E2,1.01E2,4.4E1,2.82E2,2.21E2,3.3E1,1.98E2,2.1E1,1.1E1,1E1,9.7E1,1.2E1,1.4E1,3.3E1,1E1,1.3E1,1E1,3.1E1,1E1,8.2E1,4.2E1,1.2E1,1.96E2,1E1,4E1,1.82E2,1.8E1,1.1E1,1.32E2,7.2E1,6.3E1,1E1,9.1E1,1.2E1,3.2E1,5.4E1,2.28E2,2.08E2,1.3E1,1.6E1,1.7E1,7.5E1,1.23E2,1.1E1,1E1,1.8E1,7.9E1,1.4E1,1.9E1,2.1E1,1E1,1E1,7.2E1,1.4E1,2.8E1,3E1,1.66E2,2.8E1,1.2E1,1.3E1,1.69E2,1.2E2,1.2E1,1E1,6.2E1,1.6E1,4.7E1,8.1E1,1E1,2.2E1,1E1,4.4E1,1E1,1.84E2,4.4E1,1.86E2,2.2E1,5.9E1,1.6E1,2E1,1.03E2,6.6E1,1.3E1,4.8E1,2.4E1,1E1,2E1,1.56E2,1E1,1.7E1,1.1E1,1.57E2,1.2E1,9.9E1,2.1E1,2.4E1,3.8E1,1.4E1,3.3E1,3E1,5.1E1,1.2E1,1E1,1.2E1,3.2E1,1.71E2,1.3E1,2.4E1,2E1,1.73E2,1.3E1,1E1,1.2E1,4.8E1,1.1E1,1E1,1E1,4.1E1,6.2E1,1.3E1,5.3E1,3.4E1,1.4E1,1.3E1,1.1E1,1E1,1E1,1.7E1,1.39E2,9.7E1,6E1,1.9E1,8E1,1E1,1.1E1,1.4E1,1E1,2.2E1,1.6E1,2.2E1,1.1E1,1E1,2E1,3.2E1,1.9E1,2.2E1,1E1,8.7E1,8.4E1,1.1E1,1.3E1,1E1,1E1,9.2E1,8.1E1,1.6E1,3.2E1,3.1E1,1E1,3.8E1,2.4E1],"tree_param":{"num_deleted":"0","num_feature":"98","num_nodes":"215","size_leaf_vector":"1"}},{"base_weights":[4.008711E-1,-1.1685121E3,3.7206904E3,-2.7580498E3,1.1080461E1,1.9770769E3,5.497318E3,-6.1109497E3,-2.2885215E3,1.19971375E2,-8.519632E1,2.2489155E3,-3.918945E1,4.144818E3,8.547993E3,-4.7187695E3,-1.1906815E2,-2.881827E3,-1.2193553E3,-8.669304E2,5.638163E2,2.0153577E3,6.7715904E1,2.4189543E3,4.719227E3,7.2219746E3,1.5239265E2,2.630921E0,-6.2920054E3,-3.093216E3,-1.4157911E3,-3.4950522E3,-7.625632E2,-1.0422952E3,2.6897629E1,-3.7176566E2,8.3371936E2,-2.5020824E1,2.2208596E3,3.355326E3,1.976735E0,4.306474E3,6.856593E1,5.562373E3,9.963662E3,-5.3054424E3,-9.302854E1,-3.7852246E3,-2.623738E3,-2.09857E3,5.8736386E0,-1.7222897E3,-7.044783E1,3.2462513E1,-1.0073903E3,-1.669546E3,-3.7048337E2,8.6039276E1,-1.4011954E3,3.577792E2,1.4366804E3,-2.4253241E2,2.4543992E3,4.1410483E3,1.6352247E1,4.5879966E3,1.9477776E1,6.731292E3,1.443679E1,1.145327E2,7.162008E1,-6.045706E3,-2.889286E1,-2.8939473E3,-4.290486E3,-9.182525E0,-2.7316216E3,-9.20098E0,-2.5286804E3,-3.7137127E1,-1.4332134E-1,1.9730051E1,-1.216772E3,-4.455152E1,-1.40566E3,-1.1711786E3,5.485984E2,2.5285976E1,-2.0694096E2,8.048697E0,-2.227791E3,1.3839274E3,1.7820894E2,1.2777467E3,3.706713E1,-1.5991396E1,1.1361232E1,2.7468828E3,1.1675316E3,3.00562E1,4.8367695E1,3.1010337E3,5.081956E3,8.403603E1,5.140494E1,-6.636099E1,-4.31531E1,-2.108525E3,-3.755144E3,-2.5322477E1,-4.6262793E3,-2.8178567E3,-1.017295E1,-2.97642E1,-1.6836594E1,-9.745235E2,-3.777289E1,-1.6255233E3,-1.5564996E2,8.476277E0,-1.5050784E3,2.856109E1,-2.8007407E2,-4.6953473E2,1.7693892E1,-1.294493E3,-3.9767056E1,2.7692726E1,8.644672E2,2.9467615E2,-1.6039732E1,1.5142539E3,-7.0071387E2,2.4179219E3,3.8817966E3,1.672312E1,2.375044E1,1.761917E1,3.9952515E1,4.5272285E3,6.58708E1,-2.7229584E1,-1.0955762E1,-4.2743477E1,-2.7529625E1,-3.168887E1,-4.992632E3,-2.65898E3,-4.1618103E1,-1.4332926E3,-1.06904396E2,-1.3525702E3,-3.3186462E1,-1.1739328E1,8.767829E0,-1.9244863E3,-3.4673887E-1,-2.2269539E1,5.8708093E2,-1.3643843E3,7.296276E1,-1.999063E1,-3.4413826E0,-1.7931804E-1,1.4691577E1,4.2335452E2,-1.2300913E1,1.2975962E3,4.0988388E1,4.6172605E0,-2.0108053E1,3.09322E3,2.0144271E3,2.504499E1,4.8119043E3,-1.1631396E1,1.0968703E1,4.9556E1,2.9688578E1,-5.2995037E1,-3.2833714E1,-2.822264E1,-1.922837E1,3.8281384E-1,-1.9780977E1,1.013385E1,-1.1833654E1,-9.022737E0,-1.8517754E1,-9.804341E0,-2.8670227E1,1.3364098E1,-8.98056E0,-2.3596989E1,-7.780582E0,5.1100936E0,-6.5346227E0,8.622877E0,4.6988256E-2,1.7799353E1,7.3472867E0,3.711489E1,2.1657307E1,1.2128389E1,2.6276741E1,3.1473423E1,6.0390205E1],"categories":[],"categories_nodes":[],"categories_segments":[],"categories_sizes":[],"default_left":[0,0,0,0,0,0,0,0,0,0,0,0,0,0,0,0,0,0,0,0,0,0,0,0,0,0,0,0,0,0,0,0,0,0,0,0,0,0,0,0,0,0,0,0,0,0,0,0,0,0,0,0,0,0,0,0,0,0,0,0,0,0,0,0,0,0,0,0,0,0,0,0,0,0,0,0,0,0,0,0,0,0,0,0,0,0,0,0,0,0,0,0,0,0,0,0,0,0,0,0,0,0,0,0,0,0,0,0,0,0,0,0,0,0,0,0,0,0,0,0,0,0,0,0,0,0,0,0,0,0,0,0,0,0,0,0,0,0,0,0,0,0,0,0,0,0,0,0,0,0,0,0,0,0,0,0,0,0,0,0,0,0,0,0,0,0,0,0,0,0,0,0,0,0,0,0,0,0,0,0,0,0,0,0,0,0,0,0,0,0,0,0,0,0,0,0,0,0,0,0,0,0,0,0,0,0,0],"id":6,"left_children":[1,3,5,7,9,11,13,15,17,19,-1,21,-1,23,25,27,-1,29,31,33,35,37,-1,39,41,43,-1,-1,45,47,49,51,53,55,-1,57,59,-1,61,63,-1,65,-1,67,69,71,-1,73,75,77,-1,79,-1,-1,81,83,85,87,89,91,93,95,97,99,-1,101,-1,103,-1,-1,-1,105,-1,107,109,-1,111,-1,113,-1,-1,-1,115,-1,117,119,121,-1,123,-1,125,127,129,131,-1,-1,-1,133,135,-1,-1,137,139,-1,-1,-1,-1,141,143,-1,145,147,-1,-1,-1,149,-1,151,153,-1,155,-1,157,159,-1,161,-1,-1,163,165,-1,167,169,171,173,175,-1,-1,-1,177,-1,-1,-1,-1,-1,-1,179,181,-1,183,185,187,-1,-1,-1,189,-1,-1,191,193,195,-1,-1,-1,-1,197,-1,199,-1,-1,-1,201,203,-1,205,-1,-1,-1,-1,-1,-1,-1,-1,-1,-1,-1,-1,-1,-1,-1,-1,-1,-1,-1,-1,-1,-1,-1,-1,-1,-1,-1,-1,-1,-1,-1,-1],"loss_changes":[9.458409E9,3.1031665E9,1.5999621E9,1.0958833E9,8.844223E8,4.3194387E8,1.02496205E9,6.37739E8,3.8977792E8,4.1223824E8,0E0,2.5359846E8,0E0,1.6702746E8,5.8201754E8,5.58128E8,0E0,1.1896269E8,2.2914787E8,1.8492942E8,1.6419314E8,2.3021594E8,0E0,9.709414E7,8.868762E7,2.494354E8,0E0,0E0,1.1104563E8,1.0280294E8,7.2353656E7,2.2070154E8,1.8680448E8,1.1695053E8,0E0,6.8927144E7,1.4412058E8,0E0,1.3406464E8,3.782864E7,0E0,6.742643E7,0E0,2.0211674E8,1.813248E7,5.944179E7,0E0,4.9728896E7,3.613043E7,1.7441408E7,0E0,8.83797E7,0E0,0E0,1.1285579E8,9.958941E7,1.007255E8,7.351664E7,8.3851656E7,5.1900564E7,7.535792E7,4.1092996E7,7.658714E7,2.841248E6,0E0,5.915955E7,0E0,4.725184E7,0E0,0E0,0E0,4.054912E6,0E0,2.7931552E7,3.905984E7,0E0,2.6257024E7,0E0,5.582512E6,0E0,0E0,0E0,9.928563E7,0E0,3.6299584E7,5.048353E7,1.2317882E8,0E0,4.8576212E7,0E0,4.871669E7,2.7830576E7,5.0703572E7,9.885638E7,0E0,0E0,0E0,5.4829056E7,5.693453E7,0E0,0E0,2.6489632E7,3.279872E7,0E0,0E0,0E0,0E0,1.5688488E7,7.2096E5,0E0,2.2087296E7,2.8862464E7,0E0,0E0,0E0,6.07464E7,0E0,4.773347E7,2.3106766E7,0E0,3.878531E7,0E0,8.234323E7,3.9906748E7,0E0,1.4712652E7,0E0,0E0,1.7100846E7,4.5255416E7,0E0,9.939581E7,3.59552E7,3.0826176E7,3.534688E7,2.9313176E7,0E0,0E0,0E0,2.4006016E7,0E0,0E0,0E0,0E0,0E0,0E0,1.1448704E7,1.500736E7,0E0,8.024784E7,6.6320404E7,2.058344E7,0E0,0E0,0E0,4.0789456E7,0E0,0E0,3.903727E7,1.6254968E7,1.6880742E7,0E0,0E0,0E0,0E0,3.8769704E7,0E0,4.593203E7,0E0,0E0,0E0,2.0060384E7,4.007133E7,0E0,2.3887968E7,0E0,0E0,0E0,0E0,0E0,0E0,0E0,0E0,0E0,0E0,0E0,0E0,0E0,0E0,0E0,0E0,0E0,0E0,0E0,0E0,0E0,0E0,0E0,0E0,0E0,0E0,0E0,0E0,0E0,0E0,0E0,0E0],"parents":[2147483647,0,0,1,1,2,2,3,3,4,4,5,5,6,6,7,7,8,8,9,9,11,11,13,13,14,14,15,15,17,17,18,18,19,19,20,20,21,21,23,23,24,24,25,25,28,28,29,29,30,30,31,31,32,32,33,33,35,35,36,36,38,38,39,39,41,41,43,43,44,44,45,45,47,47,48,48,49,49,51,51,54,54,55,55,56,56,57,57,58,58,59,59,60,60,61,61,62,62,63,63,65,65,67,67,71,71,73,73,74,74,76,76,78,78,82,82,84,84,85,85,86,86,88,88,90,90,91,91,92,92,93,93,97,97,98,98,101,101,102,102,107,107,108,108,110,110,111,111,115,115,117,117,118,118,120,120,122,122,123,123,125,125,128,128,129,129,131,131,132,132,133,133,134,134,135,135,139,139,146,146,147,147,149,149,150,150,151,151,155,155,158,158,159,159,160,160,165,165,167,167,171,171,172,172,174,174],"right_children":[2,4,6,8,10,12,14,16,18,20,-1,22,-1,24,26,28,-1,30,32,34,36,38,-1,40,42,44,-1,-1,46,48,50,52,54,56,-1,58,60,-1,62,64,-1,66,-1,68,70,72,-1,74,76,78,-1,80,-1,-1,82,84,86,88,90,92,94,96,98,100,-1,102,-1,104,-1,-1,-1,106,-1,108,110,-1,112,-1,114,-1,-1,-1,116,-1,118,120,122,-1,124,-1,126,128,130,132,-1,-1,-1,134,136,-1,-1,138,140,-1,-1,-1,-1,142,144,-1,146,148,-1,-1,-1,150,-1,152,154,-1,156,-1,158,160,-1,162,-1,-1,164,166,-1,168,170,172,174,176,-1,-1,-1,178,-1,-1,-1,-1,-1,-1,180,182,-1,184,186,188,-1,-1,-1,190,-1,-1,192,194,196,-1,-1,-1,-1,198,-1,200,-1,-1,-1,202,204,-1,206,-1,-1,-1,-1,-1,-1,-1,-1,-1,-1,-1,-1,-1,-1,-1,-1,-1,-1,-1,-1,-1,-1,-1,-1,-1,-1,-1,-1,-1,-1,-1,-1],"split_conditions":[5.1798564E-1,-3.666639E-1,7.319449E-1,-1.4086301E0,1.8733667E0,1.2136372E0,1.524003E0,1.005205E0,2.4390593E-1,-2.0098889E-1,-8.519632E1,5.511167E-1,-3.918945E1,3.732963E-2,2.0178554E0,-1.0173654E-1,-1.1906815E2,7.29876E-2,-8.029983E-1,1.1164082E0,-2.270235E-1,-6.9309735E-1,6.7715904E1,7.9361457E-1,1.50183E-1,1.0437979E0,1.5239265E2,2.630921E0,1.6974015E0,-7.5869304E-1,4.1494566E-1,2.0843036E0,-6.3239074E-1,-3.000888E-1,2.6897629E1,3.4587204E-1,3.038618E-1,-2.5020824E1,-4.4624928E-1,-4.4242587E-2,1.976735E0,2.9592147E-1,6.856593E1,-5.365902E-2,1.7313334E0,8.0044895E-1,-9.302854E1,1.6787586E-1,-9.566747E-1,-6.899773E-1,5.8736386E0,-4.8732886E-1,-7.044783E1,3.2462513E1,-1.0815492E0,-1.1452416E0,-8.894603E-2,-8.120522E-1,-7.8508055E-1,-7.3038304E-1,1.1789167E0,9.677965E-2,3.0973744E-1,-4.5204195E-1,1.6352247E1,7.9719734E-1,1.9477776E1,-4.655733E-1,1.443679E1,1.145327E2,7.162008E1,8.448426E-2,-2.889286E1,3.0661222E-1,-8.2181066E-1,-9.182525E0,8.670158E-1,-9.20098E0,1.5616499E-1,-3.7137127E1,-1.4332134E-1,1.9730051E1,1.2631063E0,-4.455152E1,5.714567E-1,-7.210878E-1,-3.531133E-1,2.5285976E1,3.833867E-1,8.048697E0,4.1226512E-1,-7.745769E-1,8.464208E-1,1.0659215E0,3.706713E1,-1.5991396E1,1.1361232E1,7.305098E-1,-4.93021E-1,3.00562E1,4.8367695E1,-5.2320975E-1,1.5247556E0,8.403603E1,5.140494E1,-6.636099E1,-4.31531E1,-2.5189736E-1,-2.1818754E-1,-2.5322477E1,-8.510162E-1,4.671813E-1,-1.017295E1,-2.97642E1,-1.6836594E1,9.300257E-2,-3.777289E1,4.0675777E-1,-2.4273752E-1,8.476277E0,4.9515364E-1,2.856109E1,-4.512924E-1,-1.3257323E-2,1.7693892E1,-1.9705485E-1,-3.9767056E1,2.7692726E1,-5.731484E-1,8.968498E-1,-1.6039732E1,1.5999626E0,-5.216085E-1,-7.6355165E-1,-2.4030834E-1,-1.8298864E-2,2.375044E1,1.761917E1,3.9952515E1,3.8914E-1,6.58708E1,-2.7229584E1,-1.0955762E1,-4.2743477E1,-2.7529625E1,-3.168887E1,2.3549762E-1,6.870415E-1,-4.1618103E1,-5.5529267E-1,1.05500676E-1,-2.8031418E-1,-3.3186462E1,-1.1739328E1,8.767829E0,-7.219135E-2,-3.4673887E-1,-2.2269539E1,6.908738E-1,-2.539825E-1,2.6157996E-1,-1.999063E1,-3.4413826E0,-1.7931804E-1,1.4691577E1,-5.5428326E-1,-1.2300913E1,-8.907735E-2,4.0988388E1,4.6172605E0,-2.0108053E1,-4.934779E-1,-2.7019915E-1,2.504499E1,4.1076395E-1,-1.1631396E1,1.0968703E1,4.9556E1,2.9688578E1,-5.2995037E1,-3.2833714E1,-2.822264E1,-1.922837E1,3.8281384E-1,-1.9780977E1,1.013385E1,-1.1833654E1,-9.022737E0,-1.8517754E1,-9.804341E0,-2.8670227E1,1.3364098E1,-8.98056E0,-2.3596989E1,-7.780582E0,5.1100936E0,-6.5346227E0,8.622877E0,4.6988256E-2,1.7799353E1,7.3472867E0,3.711489E1,2.1657307E1,1.2128389E1,2.6276741E1,3.1473423E1,6.0390205E1],"split_indices":[8,8,9,8,6,77,8,28,0,9,0,5,0,19,3,65,0,13,14,14,11,9,0,2,83,21,0,0,1,9,40,2,4,10,0,65,9,0,12,80,0,93,0,79,15,79,0,69,54,55,0,78,0,0,18,9,8,89,6,84,97,87,58,70,0,10,0,40,0,0,0,25,0,2,22,0,34,0,16,0,0,0,91,0,54,16,94,0,15,0,54,68,20,35,0,0,0,14,7,0,0,77,9,0,0,0,0,27,69,0,2,34,0,0,0,24,0,55,19,0,22,0,77,83,0,38,0,0,76,75,0,2,88,6,94,45,0,0,0,48,0,0,0,0,0,0,22,96,0,26,49,34,0,0,0,35,0,0,93,21,71,0,0,0,0,1,0,73,0,0,0,56,70,0,20,0,0,0,0,0,0,0,0,0,0,0,0,0,0,0,0,0,0,0,0,0,0,0,0,0,0,0,0,0,0,0,0],"split_type":[0,0,0,0,0,0,0,0,0,0,0,0,0,0,0,0,0,0,0,0,0,0,0,0,0,0,0,0,0,0,0,0,0,0,0,0,0,0,0,0,0,0,0,0,0,0,0,0,0,0,0,0,0,0,0,0,0,0,0,0,0,0,0,0,0,0,0,0,0,0,0,0,0,0,0,0,0,0,0,0,0,0,0,0,0,0,0,0,0,0,0,0,0,0,0,0,0,0,0,0,0,0,0,0,0,0,0,0,0,0,0,0,0,0,0,0,0,0,0,0,0,0,0,0,0,0,0,0,0,0,0,0,0,0,0,0,0,0,0,0,0,0,0,0,0,0,0,0,0,0,0,0,0,0,0,0,0,0,0,0,0,0,0,0,0,0,0,0,0,0,0,0,0,0,0,0,0,0,0,0,0,0,0,0,0,0,0,0,0,0,0,0,0,0,0,0,0,0,0,0,0,0,0,0,0,0,0],"sum_hessian":[2.173E3,1.654E3,5.19E2,7.04E2,9.5E2,2.63E2,2.56E2,8.5E1,6.19E2,9.39E2,1.1E1,2.52E2,1.1E1,1.79E2,7.7E1,7E1,1.5E1,3.97E2,2.22E2,2.91E2,6.48E2,2.41E2,1.1E1,4.6E1,1.33E2,6.6E1,1.1E1,1.7E1,5.3E1,3.46E2,5.1E1,3.6E1,1.86E2,2.78E2,1.3E1,1.45E2,5.03E2,1E1,2.31E2,3.2E1,1.4E1,1.14E2,1.9E1,4.3E1,2.3E1,4.2E1,1.1E1,1.37E2,2.09E2,3.8E1,1.3E1,2.5E1,1.1E1,1E1,1.76E2,1.43E2,1.35E2,1.01E2,4.4E1,2.82E2,2.21E2,2E1,2.11E2,2.1E1,1.1E1,1.01E2,1.3E1,3.3E1,1E1,1.3E1,1E1,3.1E1,1.1E1,5.2E1,8.5E1,1.3E1,1.96E2,1.1E1,2.7E1,1.1E1,1.4E1,1.1E1,1.65E2,1.1E1,1.32E2,7.2E1,6.3E1,1E1,9.1E1,1.2E1,3.2E1,4.1E1,2.41E2,2.08E2,1.3E1,1E1,1E1,1.71E2,4E1,1E1,1.1E1,2.7E1,7.4E1,1.4E1,1.9E1,2.1E1,1E1,2.9E1,2.3E1,1.5E1,7E1,1.86E2,1E1,1.6E1,1.1E1,1.52E2,1.3E1,1.12E2,2E1,1E1,6.2E1,1.6E1,4.7E1,8.1E1,1E1,2.2E1,1E1,1E1,3.1E1,2.27E2,1.4E1,1.86E2,2.2E1,1.35E2,3.6E1,2.1E1,1.9E1,1.2E1,1.5E1,5.7E1,1.7E1,1.7E1,1.2E1,1.3E1,1E1,1.6E1,5.4E1,1.69E2,1.7E1,9.9E1,5.3E1,9.8E1,1.4E1,1E1,1E1,4.8E1,1.4E1,1.4E1,3.3E1,3E1,5.1E1,1.2E1,1E1,1.3E1,1.8E1,2.1E2,1.7E1,1.73E2,1.3E1,1.2E1,1E1,4.8E1,8.7E1,1.6E1,2E1,1E1,1.1E1,4.3E1,1.4E1,4.4E1,1E1,1.36E2,3.3E1,2.7E1,7.2E1,2.6E1,2.7E1,5.3E1,4.5E1,2.5E1,2.3E1,2.2E1,1.1E1,1E1,2E1,3.2E1,1.9E1,1.02E2,1.08E2,9.2E1,8.1E1,2.7E1,2.1E1,3.9E1,4.8E1,1E1,1E1],"tree_param":{"num_deleted":"0","num_feature":"98","num_nodes":"207","size_leaf_vector":"1"}},{"base_weights":[4.5163938E-1,-1.668465E3,2.5572546E3,-3.5309304E3,-8.773786E2,1.4412302E3,5.224723E3,-3.2848687E3,-1.1754987E2,-1.8971074E3,-2.6473047E2,1.5913225E3,-6.835705E1,3.814701E3,8.458397E3,-4.5414697E3,-2.2665256E3,-1.7037156E3,-7.1539856E1,-3.890665E2,3.632024E1,7.2909845E2,2.4954856E3,4.134803E3,-5.661963E0,7.102205E3,1.5099571E2,-3.759145E3,-7.797772E3,-2.5185303E3,2.5901535E1,-3.25639E3,-1.3815508E3,-1.00205554E3,2.0178383E2,9.835267E2,-1.4132307E3,2.268531E3,5.811598E1,3.336331E3,5.387284E3,5.2128726E3,9.267829E3,3.7216015E0,-4.299576E3,-5.0557323E1,-1.1416466E2,-2.057917E3,-4.7475225E3,-2.280522E3,-4.7052466E3,-1.8290973E3,-1.990699E2,-1.6618867E3,-4.2849545E2,-2.3496532E1,3.3141278E2,1.1525166E3,-3.1770042E1,9.4745916E-1,-2.8380758E1,-4.1825806E1,2.6407148E3,2.903559E3,6.731262E1,4.7499517E3,7.968314E1,6.655875E3,1.1970605E1,1.05000824E2,6.943511E1,-5.7686655E3,-3.741854E3,-2.317344E3,1.9026493E1,-3.522481E3,-6.988748E1,-3.680598E1,-1.105201E3,-3.1102627E1,-5.7752113E1,-1.9978811E3,-3.4965405E2,1.6402722E3,-1.2050015E3,-1.9355272E3,1.1788969E0,1.9509602E1,-7.294146E2,2.0300603E2,2.5350355E1,1.0010974E3,3.302566E1,-1.8297667E1,1.7482063E1,3.6035505E3,2.169807E3,7.7298746E0,3.3639062E3,5.369017E3,1.8981548E1,8.348165E1,4.745499E1,-4.0757492E1,-6.352912E1,-2.9957507E3,-4.7232705E3,-2.545971E3,6.244736E-1,-4.4879414E1,-1.973487E1,-2.1403982E1,3.0468932E-1,-2.4936658E3,-1.6506979E3,6.304849E0,-1.2189769E1,3.9373787E1,-3.2864382E0,-3.7170435E2,-3.0046074E1,-1.632089E3,-3.0888872E3,-5.0584216E2,-3.1630507E1,-8.3250134E2,4.7215768E2,-1.3275518E1,1.1454746E3,3.138136E3,5.8242508E1,3.8838245E2,2.510019E3,1.5665756E1,3.6716199E3,3.201899E1,6.0139043E3,-4.3074425E1,-1.990761E3,-3.260755E1,-5.535313E3,-1.548495E3,-3.1146145E3,-2.9138474E3,-1.9808721E3,-1.9255061E3,-7.771344E2,1.0257799E1,-9.4865137E2,-1.9351624E3,-3.9770062E0,-1.5364751E1,-4.2545242E1,-7.080187E2,1.118819E1,2.4000113E0,-1.2511561E3,6.718548E2,-4.9506638E2,9.1286005E2,2.1628965E3,3.4986748E3,1.2541989E1,-5.54681E0,1.6134352E1,2.750886E3,5.4663987E0,3.958002E3,1.9059252E1,6.69957E1,4.312831E1,-2.9544138E1,-9.100046E0,-4.2397522E1,-6.5632195E1,-1.9902063E1,3.1665534E-1,-3.4863094E1,-1.5030322E1,-1.9475437E1,-3.2353954E1,-2.3654428E1,-8.918075E0,-1.2216528E1,-2.492723E1,2.7696855E0,-1.5850222E1,-1.793565E1,1.8654497E0,-4.1918836E0,-2.1729134E1,-3.0827215E0,-1.7167833E1,-6.964493E0,-2.4412092E1,-3.430054E-1,9.223374E0,-1.2521966E1,6.483958E0,1.3063979E1,1.5327543E0,5.106931E0,2.6480886E1,2.6328644E1,3.9698612E1,3.5816803E1,2.1669268E1,4.379575E1,2.2591057E1],"categories":[],"categories_nodes":[],"categories_segments":[],"categories_sizes":[],"default_left":[0,0,0,0,0,0,0,0,0,0,0,0,0,0,0,0,0,0,0,0,0,0,0,0,0,0,0,0,0,0,0,0,0,0,0,0,0,0,0,0,0,0,0,0,0,0,0,0,0,0,0,0,0,0,0,0,0,0,0,0,0,0,0,0,0,0,0,0,0,0,0,0,0,0,0,0,0,0,0,0,0,0,0,0,0,0,0,0,0,0,0,0,0,0,0,0,0,0,0,0,0,0,0,0,0,0,0,0,0,0,0,0,0,0,0,0,0,0,0,0,0,0,0,0,0,0,0,0,0,0,0,0,0,0,0,0,0,0,0,0,0,0,0,0,0,0,0,0,0,0,0,0,0,0,0,0,0,0,0,0,0,0,0,0,0,0,0,0,0,0,0,0,0,0,0,0,0,0,0,0,0,0,0,0,0,0,0,0,0,0,0,0,0,0,0,0,0,0,0,0,0,0,0,0,0,0,0,0,0],"id":7,"left_children":[1,3,5,7,9,11,13,15,-1,17,19,21,-1,23,25,27,29,31,-1,33,-1,35,37,39,-1,41,-1,43,45,47,-1,49,51,53,55,57,59,61,-1,63,65,67,69,-1,71,-1,-1,73,75,77,79,81,83,85,87,-1,89,91,-1,-1,-1,93,95,97,-1,99,-1,101,-1,-1,-1,103,105,107,-1,109,-1,-1,111,-1,-1,113,115,117,119,121,-1,-1,123,125,-1,127,-1,-1,-1,129,131,-1,133,135,-1,-1,-1,-1,-1,137,139,141,-1,-1,-1,-1,-1,143,145,-1,-1,-1,-1,147,-1,149,151,153,-1,155,157,-1,159,161,-1,163,165,-1,167,-1,169,-1,171,-1,173,175,177,179,181,183,185,-1,187,189,-1,-1,-1,191,-1,-1,193,195,197,199,201,203,-1,-1,-1,205,-1,207,-1,-1,-1,-1,-1,-1,-1,-1,-1,-1,-1,-1,-1,-1,-1,-1,-1,-1,-1,-1,-1,-1,-1,-1,-1,-1,-1,-1,-1,-1,-1,-1,-1,-1,-1,-1,-1,-1,-1,-1,-1],"loss_changes":[9.280924E9,1.9358582E9,2.549678E9,7.5464704E8,5.773776E8,7.64956E8,1.1213005E9,4.7853338E8,0E0,3.4058483E8,2.8194262E8,4.635964E8,0E0,2.5195674E8,5.7726925E8,4.037596E8,2.6721536E8,1.6357408E8,0E0,2.0375005E8,0E0,1.6872616E8,2.0582477E8,1.4803789E8,0E0,2.1764096E8,0E0,3.1194342E8,2.5980493E8,1.9865088E8,0E0,6.98615E7,1.4781613E8,1.0374086E8,9.570114E7,1.9701064E8,7.117379E7,2.3571686E8,0E0,1.3325555E8,6.5784064E7,2.0644096E8,1.015296E7,0E0,7.919386E7,0E0,0E0,1.7908032E8,6.873248E7,5.5171584E7,1.958224E7,4.999181E7,1.4629621E8,6.256659E7,1.0811061E8,0E0,7.701643E7,8.296685E7,0E0,0E0,0E0,1.2801722E8,9.918502E7,8.95952E7,0E0,8.337766E7,0E0,4.767245E7,0E0,0E0,0E0,5.757696E6,5.321613E7,8.721254E7,0E0,2.703488E7,0E0,0E0,2.47537E7,0E0,0E0,2.7210944E7,1.9513808E7,1.2793268E8,7.536309E7,3.380573E7,0E0,0E0,7.07645E7,7.285728E7,0E0,8.523544E7,0E0,0E0,0E0,6.0272256E7,9.660122E7,0E0,3.6833984E7,4.0838656E7,0E0,0E0,0E0,0E0,0E0,6.392797E7,2.7080448E7,7.798944E7,0E0,0E0,0E0,0E0,0E0,9.95712E6,2.4910496E7,0E0,0E0,0E0,0E0,2.9998984E7,0E0,3.2900304E7,3.3273104E7,4.119375E7,0E0,2.4546728E7,4.0315056E7,0E0,5.3642336E7,3.976211E7,0E0,3.2088112E7,6.2339584E7,0E0,2.532448E7,0E0,8.429568E6,0E0,3.1680112E7,0E0,2.803072E6,3.845165E7,4.9869504E7,5.506016E6,1.296808E7,3.0091488E7,2.4283716E7,0E0,2.5272292E7,2.503968E7,0E0,0E0,0E0,4.3828276E7,0E0,0E0,2.4044916E7,3.0454936E7,3.197891E7,5.749235E7,3.3117984E7,1.15776E7,0E0,0E0,0E0,5.0456704E7,0E0,2.94976E7,0E0,0E0,0E0,0E0,0E0,0E0,0E0,0E0,0E0,0E0,0E0,0E0,0E0,0E0,0E0,0E0,0E0,0E0,0E0,0E0,0E0,0E0,0E0,0E0,0E0,0E0,0E0,0E0,0E0,0E0,0E0,0E0,0E0,0E0,0E0,0E0,0E0,0E0,0E0,0E0,0E0],"parents":[2147483647,0,0,1,1,2,2,3,3,4,4,5,5,6,6,7,7,9,9,10,10,11,11,13,13,14,14,15,15,16,16,17,17,19,19,21,21,22,22,23,23,25,25,27,27,28,28,29,29,31,31,32,32,33,33,34,34,35,35,36,36,37,37,39,39,40,40,41,41,42,42,44,44,47,47,48,48,49,49,50,50,51,51,52,52,53,53,54,54,56,56,57,57,61,61,62,62,63,63,65,65,67,67,71,71,72,72,73,73,75,75,78,78,81,81,82,82,83,83,84,84,85,85,88,88,89,89,91,91,95,95,96,96,98,98,99,99,105,105,106,106,107,107,113,113,114,114,119,119,121,121,122,122,123,123,125,125,126,126,128,128,129,129,131,131,132,132,134,134,136,136,138,138,140,140,141,141,142,142,143,143,144,144,145,145,146,146,148,148,149,149,153,153,156,156,157,157,158,158,159,159,160,160,161,161,165,165,167,167],"right_children":[2,4,6,8,10,12,14,16,-1,18,20,22,-1,24,26,28,30,32,-1,34,-1,36,38,40,-1,42,-1,44,46,48,-1,50,52,54,56,58,60,62,-1,64,66,68,70,-1,72,-1,-1,74,76,78,80,82,84,86,88,-1,90,92,-1,-1,-1,94,96,98,-1,100,-1,102,-1,-1,-1,104,106,108,-1,110,-1,-1,112,-1,-1,114,116,118,120,122,-1,-1,124,126,-1,128,-1,-1,-1,130,132,-1,134,136,-1,-1,-1,-1,-1,138,140,142,-1,-1,-1,-1,-1,144,146,-1,-1,-1,-1,148,-1,150,152,154,-1,156,158,-1,160,162,-1,164,166,-1,168,-1,170,-1,172,-1,174,176,178,180,182,184,186,-1,188,190,-1,-1,-1,192,-1,-1,194,196,198,200,202,204,-1,-1,-1,206,-1,208,-1,-1,-1,-1,-1,-1,-1,-1,-1,-1,-1,-1,-1,-1,-1,-1,-1,-1,-1,-1,-1,-1,-1,-1,-1,-1,-1,-1,-1,-1,-1,-1,-1,-1,-1,-1,-1,-1,-1,-1,-1],"split_conditions":[1.6550548E-1,-7.0363724E-1,8.5488224E-1,2.514622E0,-3.5310432E-1,1.8949832E0,1.524003E0,-6.9408154E-1,-1.1754987E2,1.5367087E0,1.0691426E0,5.1798564E-1,-6.835705E1,1.645002E0,2.0178554E0,1.6744766E0,1.8949832E0,-9.278514E-1,-7.1539856E1,-1.3870947E-1,3.632024E1,1.2947824E0,5.511167E-1,1.0450373E0,-5.661963E0,7.785101E-1,1.5099571E2,-4.541049E-1,1.7309531E0,9.801106E-1,2.5901535E1,1.3709217E-1,6.089678E-1,-2.365581E-1,-1.4232899E0,1.2955959E0,-2.7480197E-1,-1.9968897E-1,5.811598E1,8.440893E-1,7.7096015E-2,-5.365902E-2,-3.977656E-1,3.7216015E0,-1.3319883E0,-5.0557323E1,-1.1416466E2,1.1958694E0,6.1671793E-1,-2.6507905E-1,2.3430848E-2,3.5950592E-1,-2.9443452E-1,5.698668E-1,-8.476083E-1,-2.3496532E1,1.4935141E0,1.1568481E0,-3.1770042E1,9.4745916E-1,-2.8380758E1,9.677965E-2,-5.275254E-1,-1.8425281E-1,6.731262E1,2.8521398E-1,7.968314E1,-4.655733E-1,1.1970605E1,1.05000824E2,6.943511E1,-5.97675E-1,6.4875716E-1,1.7453481E0,1.9026493E1,-1.9752836E-1,-6.988748E1,-3.680598E1,-6.3719183E-1,-3.1102627E1,-5.7752113E1,-5.176898E-1,7.311018E-2,-1.4649032E-1,2.3546807E-1,3.1412834E-1,1.1788969E0,1.9509602E1,1.2568285E0,-3.2348165E-1,2.5350355E1,-7.8076416E-1,3.302566E1,-1.8297667E1,1.7482063E1,1.0440142E0,-6.406254E-2,7.7298746E0,-1.4326505E-1,9.0658677E-1,1.8981548E1,8.348165E1,4.745499E1,-4.0757492E1,-6.352912E1,-2.8224424E-1,1.8230762E-2,-3.083351E-1,6.244736E-1,-4.4879414E1,-1.973487E1,-2.1403982E1,3.0468932E-1,-4.602227E-1,4.0734905E-1,6.304849E0,-1.2189769E1,3.9373787E1,-3.2864382E0,-4.8010358E-1,-3.0046074E1,3.167053E-1,-3.0014473E-1,8.0672526E-1,-3.1630507E1,-1.7209792E-1,5.9620863E-1,-1.3275518E1,6.502064E-1,-1.3270825E-1,5.8242508E1,-2.5312227E-1,1.0035477E0,1.5665756E1,6.2806554E-2,3.201899E1,9.6011806E-1,-4.3074425E1,2.3803335E-1,-3.260755E1,-9.188271E-2,4.862177E-1,2.3251718E-1,-6.9447243E-1,5.944197E-2,-7.324691E-2,-4.0857688E-2,1.0257799E1,-2.9749274E-1,-6.876456E-1,-3.9770062E0,-1.5364751E1,-4.2545242E1,3.159629E-1,1.118819E1,2.4000113E0,-5.6497086E-2,-5.524525E-1,2.158842E-1,-5.5428326E-1,-7.4080634E-1,-6.8944544E-1,1.2541989E1,-5.54681E0,1.6134352E1,-7.667767E-1,5.4663987E0,1.066026E0,1.9059252E1,6.69957E1,4.312831E1,-2.9544138E1,-9.100046E0,-4.2397522E1,-6.5632195E1,-1.9902063E1,3.1665534E-1,-3.4863094E1,-1.5030322E1,-1.9475437E1,-3.2353954E1,-2.3654428E1,-8.918075E0,-1.2216528E1,-2.492723E1,2.7696855E0,-1.5850222E1,-1.793565E1,1.8654497E0,-4.1918836E0,-2.1729134E1,-3.0827215E0,-1.7167833E1,-6.964493E0,-2.4412092E1,-3.430054E-1,9.223374E0,-1.2521966E1,6.483958E0,1.3063979E1,1.5327543E0,5.106931E0,2.6480886E1,2.6328644E1,3.9698612E1,3.5816803E1,2.1669268E1,4.379575E1,2.2591057E1],"split_indices":[8,8,9,13,9,1,8,11,0,83,10,8,0,4,3,2,1,12,0,8,0,1,5,8,0,26,0,60,1,55,0,33,0,15,78,25,62,12,0,70,82,79,94,0,8,0,0,50,80,95,47,19,58,38,67,0,2,1,0,0,0,87,59,20,0,73,0,40,0,0,0,96,68,3,0,24,0,0,10,0,0,14,92,88,21,44,0,0,48,11,0,14,0,0,0,11,9,0,24,10,0,0,0,0,0,40,53,49,0,0,0,0,0,8,53,0,0,0,0,19,0,49,2,43,0,91,62,0,15,58,0,89,37,0,71,0,17,0,65,0,28,0,19,12,67,60,27,0,20,68,0,0,0,47,0,0,10,48,15,1,90,57,0,0,0,1,0,24,0,0,0,0,0,0,0,0,0,0,0,0,0,0,0,0,0,0,0,0,0,0,0,0,0,0,0,0,0,0,0,0,0,0,0,0,0,0,0,0,0],"split_type":[0,0,0,0,0,0,0,0,0,0,0,0,0,0,0,0,0,0,0,0,0,0,0,0,0,0,0,0,0,0,0,0,0,0,0,0,0,0,0,0,0,0,0,0,0,0,0,0,0,0,0,0,0,0,0,0,0,0,0,0,0,0,0,0,0,0,0,0,0,0,0,0,0,0,0,0,0,0,0,0,0,0,0,0,0,0,0,0,0,0,0,0,0,0,0,0,0,0,0,0,0,0,0,0,0,0,0,0,0,0,0,0,0,0,0,0,0,0,0,0,0,0,0,0,0,0,0,0,0,0,0,0,0,0,0,0,0,0,0,0,0,0,0,0,0,0,0,0,0,0,0,0,0,0,0,0,0,0,0,0,0,0,0,0,0,0,0,0,0,0,0,0,0,0,0,0,0,0,0,0,0,0,0,0,0,0,0,0,0,0,0,0,0,0,0,0,0,0,0,0,0,0,0,0,0,0,0,0,0],"sum_hessian":[2.173E3,1.315E3,8.58E2,3.91E2,9.24E2,6.06E2,2.52E2,3.81E2,1E1,3.46E2,5.78E2,5.96E2,1E1,1.77E2,7.5E1,1.69E2,2.12E2,3.35E2,1.1E1,5.61E2,1.7E1,3.06E2,2.9E2,1.65E2,1.2E1,6.4E1,1.1E1,1.38E2,3.1E1,2.02E2,1E1,5.6E1,2.79E2,2.75E2,2.86E2,2.74E2,3.2E1,2.73E2,1.7E1,1.03E2,6.2E1,3.6E1,2.8E1,1.6E1,1.22E2,1.9E1,1.2E1,1.69E2,3.3E1,3.5E1,2.1E1,2.02E2,7.7E1,1.27E2,1.48E2,1.3E1,2.73E2,2.64E2,1E1,1.6E1,1.6E1,3.8E1,2.35E2,9.3E1,1E1,5.2E1,1E1,2.6E1,1E1,1.6E1,1.2E1,3.1E1,9.1E1,1.59E2,1E1,2.3E1,1E1,1.5E1,2E1,1E1,1.1E1,1.81E2,2.1E1,2.7E1,5E1,1.1E2,1.7E1,1.6E1,1.32E2,2.59E2,1.4E1,2.48E2,1.6E1,1.9E1,1.9E1,7.5E1,1.6E2,1.7E1,7.6E1,4.2E1,1E1,1.2E1,1.4E1,1E1,2.1E1,5.4E1,3.7E1,1.45E2,1.4E1,1.3E1,1E1,1E1,1E1,7.2E1,1.09E2,1E1,1.1E1,1.2E1,1.5E1,3.5E1,1.5E1,8.9E1,2.1E1,1.22E2,1E1,5.3E1,2.06E2,1.4E1,2.34E2,6.4E1,1.1E1,2.6E1,1.34E2,1.2E1,6.4E1,1.1E1,3.1E1,2.2E1,3.2E1,1.5E1,2.2E1,5.4E1,9.1E1,3.7E1,3.5E1,8.2E1,2.7E1,1E1,2.5E1,7.1E1,1.8E1,1E1,1.1E1,1.09E2,1.3E1,1.5E1,3.8E1,1.71E2,3.5E1,1.92E2,4.2E1,5.3E1,1.1E1,1.5E1,1.1E1,1.19E2,1.5E1,5.4E1,1E1,2E1,1.1E1,1.6E1,1.6E1,1.2E1,1E1,4.2E1,1.2E1,7.3E1,1.8E1,1.1E1,2.6E1,2.5E1,1E1,3.8E1,4.4E1,1.2E1,1.5E1,1.4E1,1.1E1,1E1,6.1E1,7.9E1,3E1,2.7E1,1.1E1,4.5E1,1.26E2,2.1E1,1.4E1,1.26E2,6.6E1,1E1,3.2E1,2.1E1,3.2E1,4.7E1,7.2E1,4.2E1,1.2E1],"tree_param":{"num_deleted":"0","num_feature":"98","num_nodes":"209","size_leaf_vector":"1"}},{"base_weights":[3.8625768E-1,-1.6527058E3,2.532946E3,-3.497569E3,-8.69096E2,1.4271573E3,5.175953E3,-3.2537112E3,-1.16481224E2,-1.8791697E3,-2.622486E2,1.5758689E3,-6.773562E1,3.7788647E3,8.379976E3,-4.4989233E3,-2.2446042E3,-1.6875327E3,-7.088408E1,-3.854109E2,3.5977215E1,7.218294E2,2.4714504E3,4.095967E3,-5.6096997E0,7.0360654E3,1.496116E2,-3.7238767E3,-7.7249424E3,-2.4942532E3,2.5666067E1,-3.2264006E3,-1.3682362E3,-9.924256E2,1.9968138E2,9.738157E2,-1.3999297E3,2.2218884E3,5.4219175E3,3.3046616E3,5.3372334E3,5.1646064E3,9.181166E3,3.686574E0,-4.259236E3,-5.007703E1,-1.1311084E2,-2.037631E3,-4.7040034E3,-2.2593252E3,-4.6622334E3,-1.5468737E3,1.4863818E1,-1.6459447E3,-4.2435266E2,-2.327835E1,3.280958E2,1.1412402E3,-3.1481228E1,9.385415E-1,-2.8113647E1,2.8296812E3,1.4385671E3,2.7149017E1,7.451522E1,2.8756814E3,6.67007E1,4.705492E3,7.895875E1,7.623928E1,2.6929863E1,1.0401257E2,6.8794174E1,-5.714238E3,-3.7068523E3,-2.2946008E3,1.8853523E1,-3.4899482E3,-6.925214E1,-3.6460922E1,-1.0951537E3,-3.0806477E1,-5.7235004E1,1.4469304E1,-1.6951775E3,-1.916963E3,1.167763E0,1.9325981E1,-7.2242645E2,2.0087546E2,2.5113752E1,9.912186E2,3.2714832E1,3.1240999E3,1.5892177E3,3.7502864E3,9.103208E2,7.6568704E0,3.3315803E3,5.3186323E3,1.8808989E1,-4.038697E1,-6.2922703E1,-2.9672788E3,-4.679739E3,-2.520987E3,6.186455E-1,-4.4462673E1,-1.9555464E1,-2.1209398E1,3.019194E-1,-3.03118E3,-1.5346875E3,-1.6161002E3,-3.0606306E3,-5.0085742E2,-3.1342958E1,-8.247129E2,4.6744983E2,-1.3259167E1,1.134903E3,2.583943E3,3.6852595E3,2.3353403E3,2.0327234E-1,5.473789E1,1.5291662E1,-5.324599E2,1.8570027E3,1.5521151E1,3.6362183E3,3.1725483E1,5.957207E3,-4.2662407E1,-1.9720244E3,-3.2301857E1,-5.4846567E3,-1.5333662E3,-3.0840105E3,-3.672999E1,-1.8220633E1,-1.8642894E3,-7.1975323E2,-1.9161708E3,-3.9393291E0,-1.522507E1,-4.2155243E1,-7.0112256E2,